4.71185108325	-2.76391529653	-3.19200822115	4.60779363707	1.0911218957	6.95311255841	2.55232050316	0.239942141076	3.41770196508	2.11850726581	1.25188078864	-0.21081687053	-1.79528627357	0.393503374693	0.156765132176	3.49381340816	0.575502500983	1.02714796315	-6.31408779203	2.87035682775	-6.30906660878	-3.14919538815	-3.25875547479	-0.886471681556	-3.32173442456	3.01913170785	2.73804567697	4.9957303749	-2.96411647751	-0.554259395697	1.52498113261	-3.79551917338	-5.13902136828	0.996049438616	3.21405471244	1.17971882923	-1.18148208449	1.02010982652	-0.831713665363	0.36335438141	-2.11086729951	-2.98311848837	2.21120692974	-0.275279100811	-0.954635136564	-2.86509764558	2.47754442264	4.80788241988	0.148410801129	-2.88138315414	-0.235864620815	-3.54224727484	-4.11841632988	-2.7638619562	0.136918542854	-2.0232697694	0.0476806069649	-2.10339916826	0.274918775217	-3.41318687072	0.953789529911	2.82027292392	-1.19930783978	-2.85229056053	0.848370249989	2.67517436285	1.18421725005	-1.25588513786	-1.42553042563	-0.34270482115	-0.442376026641	-3.27987060654	-1.60101809902	-1.06616849367	-0.11129931294	1.41246523538	-2.749566686	-0.9163020415	1.57309927497	0.742415343848	0.765829602727	7.29620487977	0.539477568497	-0.394032779687	3.78338629409	1.93256659172	-1.86155668777	1.49538818783	-1.52429854527	3.65099140308	-0.0987493591332	4.45820543894	-2.11120281006	2.11407822715	3.36295182128	3.66617369939	-0.433200983114	3.12282224981	1.47430587704	0.612063399903	-0.527207197497	1.32111301853	-3.04370697587	-4.11041762277	-1.08885550983	-3.51533165824	1.67595177761	0.314371547218	-1.67252319552	6.90104420252	-1.08220815604	-3.63799047626	-1.17991584615	-1.16582057952	0.422532153623	3.64853512559	-3.98291175988	-2.12845381866	1.06840609759	-2.04184772654	-1.56999089568	-3.90529083952	-1.18659521526	-0.350988713795	2.66732079934	0.733470565009	4.17245514728	5.15396751017	3.79168329121	-2.77443043129	-1.65681090189	2.34383115359	1.9221838373	0.375576252893	-0.376055096909	-3.03271256755	-3.07320176711	1.57545427279	-2.83334964236	0.897174763517	3.48024256833	1.31597300575	-3.90387503812	2.56483160196	2.53146922971	5.8223134934	-4.57877552079	-3.69745726901	3.80778294695	0.472127347418	-2.42663495831	4.20041050662	0.659660936538	-1.201489793	2.9966166791	2.30417812492	2.11065164702	-2.28069288558	-0.386101151638	-5.39857461255	2.01688853999	-2.04985410008	3.56281947024	-1.45879260276	1.98936650694	-2.26918552541	1.69200129711	-4.68360349815	-0.633182572298	2.37304937578	-5.75278103261	-1.05965042683	1.88699500711	2.2938265999	2.60279781284	4.0795613792	-0.806664146039	-2.86044354948	-0.662405637447	-1.14847997322	-4.11995243255	0.413795907074	-2.21792758274	5.4009592319	1.6745234348	-4.17337841984	-1.0771261731	1.4202415347	2.74748580508	2.07910071708	-2.02100870448	-0.252516120938	-3.25252272707	1.47853638639	2.82006234375	4.13102184051	-1.35568213209	3.84770693588	0.17183273123	1.22384254212	0.877062608093	-1.21917930707	-2.93952953407	6.38541409623	0.402608038477	-0.187790361595	-2.70291550284	6.56910770001	3.10706042489	3.99282065515	-3.33742713812	-4.64515146916	-1.71996714369	4.06403582528	2.00630680927	-1.53448065029	-4.00325931046	1.82213610823	1.74522400167	2.54724742204	-2.9423657753	1.88146228336	-0.470388809949	1.34319011522	1.95310308466	3.68929257191	1.45698721554	0.0183532455037	-0.146415547733	0.882500292033	-0.912389873837	1.01507525695	1.8035913865	-3.32236632671	0.915605597124	-0.974636285825	-0.535420234917	-5.76416461244	-0.0927068742015	-0.468703918409	0.348692462166	-2.26530481579	1.44177818186	-3.37048865417	-2.10422492425	2.26668745329	1.83285262497	-1.52172351557	0.048651114251	0.59323138921	1.04159758313	2.75114512008	0.923119054514	4.05726460609	0.272169634014	1.75370266451	0.717016154968	2.75429141951	0.631250941943	1.04518233162	1.91712478656	4.25161738929	-3.96929863278	4.70964068879	-3.32265657615	2.78907611161	0.890158330905	0.245268367691	-1.50037919893	-0.84549460072	4.76859980105	1.98134923219	1.70870310897	0.92719862753	-5.24372119227	4.08319040237	-8.206422737	0.695153513008	-1.5602218939	-2.17237898156	-1.04875712825	0.73444160834	0.538882117915	-1.2827190819	2.41808739534	-2.50123070704	-1.1180204108	1.39948534162	-3.51523946518	1.42828922505	-3.15820545189	2.14211933824	-1.71528136268	-1.05591706863	-0.646576446149	2.89292575855	1.24506700669	-1.92262035689	4.28900413032	0.379687235905	-0.555753492425	2.62322719466	-1.99052621261	-1.34831379875	-0.791956034692	1.03766202045	3.47708290367	-0.893952879399	0.080108493903	-0.811120618366	1.29376795589	-0.299521426156	0.866056778765	-1.75369104001	-0.76947978189	5.12915369967	-0.409559609769	0.756282023319	-3.27945651054	-2.0279715366	-1.94324576857	0.888648057774	0.331307663705	-0.687738517199	-0.589251842217	-1.07441400176	-0.137601294211	-6.94337903202	-3.25337801554	-0.789018825272	-6.16868142464	-0.595992992097	0.56936400262	-4.81192120808	2.13938409525	1.35970293882	2.40791762673	0.508005610723	6.64461274541	0.0647790809799	3.49277059109	2.54274850155	5.42611208896	-2.87690948683	-1.34645024634	0.376397238538	-0.444729459622	-1.7318963015	3.16847078699	1.84889489816	-2.54021122435	-0.184994142892	1.44332533181	-3.31379638483	1.59640619401	-0.877314671852	3.05909493296	2.80787633816	-2.31940980495	-7.13138223183	3.62812900338	-0.779385572753	1.57474723083	1.22175666406	4.5830521246	-0.899041257716	2.57909350586	0.628814107165	-0.678003024028	-5.47051461538	1.52814285833	0.0571007449489	3.89692494121	-1.50976262107	1.14184600489	-1.85324711866	-2.24515812005	-0.265880893095	-3.51973627664	-3.52268177551	5.88407091066	6.09607970581	-0.87810851482	-0.34005713481	2.95879630165	-1.83378853613	1.76574090291	-1.35564597451	1.83050656592	-0.39451151655	1.57676856623	2.74272349511	0.10808721302	-2.39591001821	-1.20687758137	-0.0258752065879	1.2246548455	2.29003127265	-4.15084898846	-6.76860996166	-2.24620533663	1.89433700903	0.0166081451073	2.13877672983	-2.18551264685	5.10208992398	1.93855488212	0.506623180989	-1.07939915506	0.423087638579	1.97022933942	3.17191343323	-5.60894028258	3.4952095394	0.784366848198	-3.74128567794	-1.0256177489	4.0388598414	-1.21306954457	1.6165169626	-1.45278242625	-0.505785804194	-4.94814307316	1.46511760432	-2.09162782677	3.63242028284	2.9002940266	-1.83439659867	0.960877197966	-2.30599343507	0.867306290055	-0.959927498163	-1.19497533758	-0.538902099129	1.84041602867	-1.43135811641	-3.59617762858	3.70361674883	1.84651712722	2.54123894022	1.56309319164	-0.517502553383	-1.81204672381	-1.50400842598	0.901254716498	-0.137951609536	6.30571929409	-0.1569462075	-1.03337277356	-7.12250111957	4.90629321496	-0.669907349115	-0.854098303217	-0.137892967692	4.56792915995	0.509079130233	2.17597825611	0.160221956451	0.847464524891	0.49077423182	-0.088881680128	2.12491057838	3.48702729842	1.98368424982	1.82981827417	-3.32404883319	-3.42575145667	-5.58396120561	1.2253660249	-0.361578207968	-2.59531317463	1.21002818443	0.93930745628	-0.415635483139	-1.8875609563	2.64424749598	5.44567286165	2.74797926819	-1.0368271169	-6.61850753732	-2.84290570103	-0.167496271669	4.31209854726	-0.299333131669	-0.0152053847893	-3.856830024	-1.43706357461	-2.05441484976	-1.51895468345	1.57206109553	3.24755466697	-2.9114726629	1.3819137982	-2.4033081494	-1.3906808275	2.76375542651	-3.87716876982	-0.582587255721	1.20024881666	2.00483535991	2.35094066331	0.304719005524	-1.3077920388	-4.32346446879	7.05104359459	-1.88395773977	0.862318716926	0.655583383599	-0.295327355119	1.13396304855	-0.889282468301	-3.12785142415	2.41574762998	-1.66506239778	0.20028279014	1.01634578823	1.19431135527	3.00974298832	0.733100285061	-1.30937711591	0.192071021195	0.244549026333	-2.59388705689	-2.2662672746	0.746721602853	-1.10646691408	1.76011669377	0.529369625112	3.15696196319	0.736858581713	-1.94105447567	-3.05580572773	-0.625780401584	0.716852817543	2.25766345023	2.12886098441	0.379735215222	-2.22309375041	3.20254218321	5.32860971761	-1.88728750687	-2.11997920298	3.14665598827	0.9928939851	-0.118386275151	-1.05085836519	1.21662408474	-2.245092535	-4.24023984311	1.8725569251	1.08745235865	-2.37129098063	1.03974980383	-1.17929617836	-3.023199043	6.87894602139	-1.34490433897	-3.71744040227	3.20708681341	-1.66857230194	3.96331884664	-2.28353778025	1.47676990109	-1.94274019174	-1.19569518035	-0.36021388827	-4.59676182225	0.15461358738	0.279268776548	-3.95499698622	3.59574319829	1.09332918346	-0.594536042862	-2.10829764042	-3.66251237192	0.901490608059	-2.44081479385	4.80342773428	-1.65701841022	-3.31258951158	-0.472203663528	1.91661443785	-2.17104480008	-0.927465290892	0.442947356208	0.904828211248	0.0469384496263	-0.420638996042	0.243152355862	-0.765543512814	-2.56547901752	0.240943744673	4.43034407623	2.41739637384	-0.982456652267	1.42551435688	-3.83085887268	3.34297380829	-2.22717910381	-5.87764833707	0.670900113845	-0.170787627788	-1.68140782478	-3.37540860882	0.441279288384	-3.07825281955	-2.3155820406	-1.11744613305	-2.18755002489	2.39951706784	0.0910416721018	0.622908549503	-0.517908509461	-2.59217397619	-2.16698097784	1.82775724431	-2.72479538254	-5.22917916424	-2.41165314367	-0.920584012096	1.71455632695	-1.28766673898	3.8552707346	-2.80901212377	0.483700690321	-2.94886203333	0.755999524418	0.138378948426	2.17480565792	1.77039776124	-3.62576955897	1.40636334068	-0.546604693757	-2.8921050834	1.66277484777	2.88043968885	-0.279230070873	-0.654556480628	-0.370120026668	0.635896221911	-0.87583864669	-2.90316111616	5.32113637288	-1.14749359709	0.611531544142	-3.05387006649	0.842479343819	1.41423057923	0.862160897795	0.674664845608	5.45880527525	-0.85127593521	-1.61673207359	2.26831753232	2.21205429439	-0.380331876113	1.64280298968	2.74849961518	2.66183799765	4.7743154246	1.45241247411	3.34636622407	4.00707327201	0.164095783236	-0.594584978479	-0.673189284542	2.43581050254	-0.43750941986	-3.25885593929	-1.24354453458	2.09795018608	1.91834547988	2.05658653875	-2.35322287186	-0.9296686531	2.53015741674	-2.29294277522	4.53229036664	1.91998517341	4.65476034049	-5.93837238652	-3.21660904732	0.620351778754	0.905025053382	1.02783363901	1.37125624492	-2.66876840303	5.62705658478	1.18628179451	1.17414829493	-2.45699467478	-1.49888250604	-0.545427184614	0.392977676485	3.2751846406	-2.01560541149	2.61036160725	-3.87375618747	-0.867941241712	3.0633797797	-0.720325382745	0.694814602548	-1.12878507187	-2.38587269822	2.32274071335	0.417922908361	-1.97968734038	0.730824467552	1.33734865911	3.54452963207	-0.317537014651	1.07982326819	-3.51365136537	-1.47658767835	-1.18960239394	-1.65601547246	-1.44236598891	-0.760587525479	-1.7481509112	1.3600948535	-1.65793456181	3.21516072041	-1.84578090405	0.503294175752	-5.29549046832	-2.93102349343	-1.86361382808	1.10546642218	1.39364715951	-2.03116898446	2.76242924431	0.781874145263	4.19746232923	-2.28186153605	-3.16122461914	-6.5300324095	-3.54630280837	-0.762735881294	-1.51035217031	-4.0409996976	-0.814451187938	0.979032073278	-0.45639945864	-0.820882421343	-1.52704323986	4.83598667798	-3.67290088207	3.98603493481	-4.50829086047	-4.0327842962	-2.16076680931	6.30003058083	-3.53014637646	1.20551959718	-4.11483305504	-1.30991618041	2.61188016603	-2.2826601743	0.423988040046	1.17120825413	-1.1421116887	-0.981879944425	-1.20006968101	-3.64069722246	1.17482956235	0.180547317715	-2.85672785395	-0.763071771052	1.26382397551	4.53690556087	-1.21065377458	0.126946851639	1.60783348624	0.820452986614	-0.809971465657	0.783954132712	-3.53984026586	-1.99656813051	-3.42661856786	0.854907702843	9.31811114966e-05	0.00321415708978	-1.85874199429	2.99156718826	1.41466579794	-0.0925723631164	-3.57793428106	0.847859362914	2.83987284688	-0.216680683159	0.195669851197	0.749343498691	2.1959856229	-1.10288731858	4.69356534739	0.59325178811	-1.08511182863	-3.13913379247	-1.72446068091	-2.93646108885	1.59043067802	2.81567629562	1.28008524678	-3.08580863919	-0.468858195315	-0.320162838575	5.12849493978	1.50012225436	-5.03375225572	-0.890133535291	-4.40429269977	-0.198081555461	1.76056703963	0.766919553599	0.726096249628	2.46552879162	3.54220947382	1.2421524079	0.904199333867	-1.0889089126	5.23551389799	-0.91141241507	-4.4904862441	3.82677783984	1.13845010488	-1.19614473156	-6.79965541757	1.52027870905	-1.39433522116	0.835049020805	0.294838734118	2.78388311161	-1.07047061471	2.83179672266	0.85486786687	4.62159537083	-0.614768788304	0.796939537215	-0.617864109059	1.25592062559	-5.80345030939	0.458299451357	1.73157194901	1.5825756813	-9.16861378031	-3.25186199528	6.30441874526	-1.37736930582	-1.06293738167	0.0744070636249	3.48023722825	0.467327182127	0.883102079198	-0.471980585741	-2.50197295575	1.1321182761	1.03187400509	-2.16865133449	-0.450220130531	0.325131826159	-3.18788333099	-6.92849106504	4.55630778725	-2.7190571386	0.823402871499	1.5891952983	-2.35062709244	0.542272557414	-0.731229567275	-2.19386616619	-4.7249036574	-0.210039963132	-0.0688586161677	-3.84647749894	-3.92913014944	-0.542683468847	-2.19025245011	1.04976284757	0.689598735196	5.55990120401	-0.141054698952	-1.8424175615	0.661587011168	0.475824996163	4.49439361751	6.24249658696	-0.283900917596	-2.55789720944	4.78787704372	0.700313229233	1.4861529465	-2.85270339209	-2.56062016296	-2.69693528525	-3.53500199511	3.95325122061	-0.227428269166	-2.49135096257	-5.50287420401	-1.73535261141	1.45241377487	-3.4754105415	5.41027222441	-1.48109398311	-1.10276858791	1.37136927555	0.997883937063	-1.22470489998	3.17605033897	1.38693415279	-2.50126119252	-0.440151007039	0.125426490534	-0.340692143681	-0.665186642593	-2.1933129264	2.85659428856	-2.66004723213	-0.789478151549	3.94987314186	0.0620372689574	2.72439312593	-3.22039765123	1.03869623836	-1.33334461404	0.977624699821	-3.1803590016	-1.41962085498	-4.50013819044	-2.18501214892	-0.776136905638	-4.39351374614	1.41838343933	1.13311626171	0.344528694031	4.45051508269	-0.0133520723123	-0.308843185816	-1.69637385366	0.693470337463	3.2025142969	3.26825266587	3.05591939811	-1.52701464096	1.22462839328	3.26515123705	0.218914686459	1.60249628527	-1.82297987921	1.6885057282	0.732223032155	5.23704649812	-2.58608507262	1.88215100524	3.50375572615	-0.623560706265	0.973678507133	0.642106987903	-1.37288176151	-2.53876689667	-0.629102489287	-5.79666063565	-2.09364504369	-1.76290347736	1.95442786314	1.32414045509	2.07753383578	3.70366170713	-0.157553436982	1.05228608183	-3.06246226988	-0.209767566302	0.641654703324	-1.84278250892	2.36278665302	-3.48105209622	-0.150379303944	-2.38380545044	1.91893787442	-1.95610009063	0.621924240949	1.57841985454	-1.35576546956	4.7363442883	-2.32140705587	2.00064155906	-4.04200437148	-0.77236166845	0.175255965337	-1.83991993611	2.87342049472	-5.07604912219	2.30004734601	1.85498882013	2.45410380878	0.849407495312	-1.1238771884	0.428149351279	-0.650749765263	-4.58016261862	-2.77226646645	3.76389970997	1.98357763376	-2.11611699409	-2.29767273143	-0.512741236779	0.390239419372	-0.665083457172	-3.14341134849	2.13854897865	1.1406297626	-0.677296779253	1.93696405146	1.4321572959	-3.07380687804	-2.81019814261	1.07942359346	0.353482768887	4.53126282829	-1.82026330693	2.28978426772	-2.48900259872	-1.36634837898	0.499420201345	0.759628356991	-1.17919525569	0.499412023034	1.5461316498	-4.00049108621	-3.84132244766	-0.326980896458	4.68404257896	-3.33863171064	-3.09503303053	6.01040820486	-0.0705448748526	5.84908635761	0.419756999301	2.26416382383	-0.928413306391	-1.16085411828	-0.890146247621	0.909979979735	-1.66391290368	2.22709178608	-2.71541643011	-0.99237378265	-0.221768291783	3.21756930414	0.619298942446	-0.58974028621	0.852574778407	3.07557350688	0.343058435746	-3.47940829901	-1.06186177591	0.443399087762	-0.538819288223	4.83620485506	0.874957495563	-2.46646923079	-0.141309727456	-1.67638743502	2.57926753252	-0.67224554296	-2.7272851588	0.793153628437	-2.14709715622	1.70309711205	-2.49442184812	3.69650848051	3.73503901944	0.195259403835	2.60960926782	-5.4226185966	-1.04716591785	0.134587526203	1.60370661857	1.51520924313	-0.792321254444	-2.97928946411	3.28869153142	1.74134292035	3.69239668006	-2.99905070224	-0.410648791771	3.92705702045	-1.93066803467	2.62209287117	2.80664761781	2.11397795447	0.0725797553321	3.6609908701	-2.11391067022	0.259856182562	1.88494750166	-1.15029887503	-2.6876206195	-1.15584145565	-0.15122598063	0.118673934696	1.29074598526	-1.54358131503	1.7383068622	2.45858318507	1.49312861192	7.26737770053	2.53411648857	-1.29633905614	-0.66371649066	-1.01253612429	1.08473699125	0.911984691216	-1.65214755149	-2.20663116864	-0.655932799714	0.493979487931	2.78302826442	-0.537717502978	-2.03327715032	4.12599140114	-3.36524527085	2.21953674762	-0.514496547889	-1.37513613571	-2.04978756313	3.68946605285	-0.836108813985	-1.64513252517	-1.59822516293	-4.38360614967	-1.93840772804	-2.12591170269	2.39418523919	-5.62805751856	3.43620259625	1.6860936918	-2.49225396607	-0.983216205203	2.19469229392	1.41254322855	1.53668703135	-1.26692291009	-2.54923612701	-1.14891965429	9.08928935011	2.23755519928	0.644998411927	3.60042221095	-0.417738130833	0.159922189713	3.61074335564	-0.125765203007	1.29309758106	-1.63022187267	2.73750737458	-1.04103833844	2.33685714158	3.70463974156	0.836958193671	-0.735505270694	-1.233073513	0.827218264107	-6.31812837349	-3.92816743719	4.06195074855	2.40873780885	0.40659915033	-0.608168288677	3.22581727473	-2.16482535527	1.0926721611	-1.60816661037	-2.09086105958	-1.98466651965	-0.840306721495	-3.69950354725	-1.50695024445	1.02270117197	1.47909639208	0.637732109006	6.34031825605	-0.0180119395633	-2.36005860682	1.44173799889	-5.98273512486	-3.64983811288	-0.695684410685	-2.35865297919	0.848357251382	-2.69775640314	2.09617824121	3.37959308243	-3.74429206176	3.15020350978	2.64647990393	-1.66144648933	1.9839059332	-1.92710742131	-0.800508886277	0.258590650253	1.85125706085	1.59794925142	0.70227142592	-3.85229330961	2.57927170574	3.81238802961	0.797576673214	-1.32633758169	0.260870163839	1.87258939214	-0.745476314621	3.35057781258	3.34076203735	3.3646149443	1.65203015013	-1.16138628959	2.33392761701	0.250982302957	-1.79282562279	1.3688668025	-4.30477700699	0.970091551682	-3.1338119277	-2.96079451426	-1.61368314967	-0.674847874186	-0.570785876477	1.60779066863	1.53979747482	-1.58821227559	-0.199011588299	-3.43514416601	2.60446440234	0.0899663014053	5.29364528963	-0.44971164837	-0.179642159354	1.6375941473	0.571425947065	3.19592951523	-4.40394500788	-2.33298611581	-0.804318873793	2.48007590902	-0.950896811371	2.58807675448	0.0777436935328	-1.07952828112	-0.715416942815	-2.87874681094	-1.45652663979	1.78917208519	-2.64633577121	1.74288411899	-2.90527419264	-1.33766105884	3.07994719987	1.70249050777	1.79130362881	-3.69575882978	-2.42690463374	-0.436686550296	2.55759638603	1.406023023	3.08198292478	4.38395330057	-3.00558578777	1.36353625486	1.22582157394	1.12485856608	3.81390630898	-1.23380706947	-2.80060421358	-1.71901137437	-0.332761079787	-4.30424907377	-1.30751237451	-4.61969581264	-2.03273288152	1.27468902609	-4.02136243829	-1.72947041415	3.49738109544	0.43432794186	6.34391834925	1.43100692979	-6.95550385217	2.10405655099	0.309094193323	2.27214660091	6.28317999456	0.0794528759805	-3.05202896325	1.96880898866	2.55846661441	1.82391944658	-3.70614043563	6.99648075678	-0.125420819713	5.78881360461	-1.49045423976	-6.33265583069	3.57387280736	2.70029690486	4.58750307463	2.15089669074	-0.235570024925	3.14457605127	-0.17926045645	0.624512219253	-0.605907365372	-1.79642161876	1.06972632446	-2.16123150936	0.749444282349	1.55336507321	3.76140433619	-3.91163843795	0.616475714826	-2.20840955734	3.29691746318	0.974174541473	0.972892304072	0.801013056473	1.44345147395	-0.725037680482	-4.77383750177	0.438796211632	1.15205813773	-1.63318311662	-2.3589212302	3.49470760937	-3.10812484998	-2.13184130448	-3.80668243984	-7.7721701733	-2.61686819014	4.75524750637	-3.68485160313	1.70799352082	1.82055902038	3.26869807805	-4.84252013733	0.552908956711	3.13743576071	1.13683346847	5.14621971321	-4.58863169231	0.484754364018	0.626707860599	1.04912805611	-6.38165166479	-0.326276765447	3.26317893663	-0.549184158492	0.251062184554	-0.126833266953	-3.12219792005	-0.436390071907	0.874028156012	-0.477612668543	0.611042824013	-2.2133272793	2.99814061444	-3.33538446722	-0.540796223866	1.93157343485	-1.46836460116	2.75074875671	2.05824007555	1.09002071906	2.95650337392	-1.37752286718	0.572230918627	1.85022505631	3.12455793938	3.468434391	1.84913260681	-2.32014410901	-1.34158431521	1.47643406224	-1.62493147826	0.873082982622	1.24916082092	-2.60448331297	-3.06201719234	-1.34781268508	-0.481571280182	-3.42679676889	-0.147554871785	0.268192665632	-0.0164304230566	-1.96438222808	-0.140970967171	0.489793049869	-1.4953474029	-1.16664611323	0.483510657698	0.260524670221	-1.87442772618	-0.0396220544422	-0.546503810029	-0.695889186701	-2.74893140678	3.02695588387	-0.514583190199	2.91829883847	2.20679506341	1.41112984845	1.36807321225	-3.35067749871	-0.0902387286001	-0.53785728761	1.24104518935	-2.63801906238	-1.27220725017	-0.29501017848	-0.296034293967	-0.786154999388	1.9577864377	3.09857949827	-1.66817704816	-0.354752551361	-0.0659262854517	0.610462604062	-0.0627879850579	2.38229046626	3.13507678078	5.7166006862	-1.83149962088	-2.30375815132	1.19640157642	0.37591771747	-3.02758286853	1.63321079585	-6.64906738192	-2.5289836319	1.93111694279	-6.08766178626	-1.37996504604	-2.47535669447	-1.17613988158	-2.69329381048	-1.67600667282	0.684981097835	-0.43593157281	-3.42892188235	1.95308644888	1.03934955503	-2.25021602901	-2.9061568632	-2.60824316997	0.422541490154	1.37691965686	-2.98040464472	0.0835884843862	-0.621960714927	0.573289285435	2.85429479736	-1.46283837813	0.765530370193	5.75832473629	-1.75346646266	0.419346875936	0.580944642432	1.43299989703	-2.40973614652	2.35339023918	-0.337173584113	4.27868292674	2.03727258352	0.807709076598	2.17549692564	-1.62907244428	-0.2635238813	-5.38506875207	-1.77747025739	0.766530092817	2.39611916603	1.48804748955	-0.569062283452	-2.99941327713	1.15720705057	-3.0911192959	-1.42531908389	-0.580252430045	-0.554537871724	1.68681031536	0.524690350497	1.33346832968	-0.898286281549	-0.0540664352469	6.447241631	-0.807995999872	-1.742469038	0.068630490197	0.053099867791	-1.89058965777	6.06147319625	1.7065495335	1.11395832182	-2.30447378375	2.37438550493	-3.1421771711	-0.587545314039	2.20158134699	-1.08340824941	-3.16033382005	1.86084709934	-0.173401042099	-3.63846050619	-0.286122130849	1.39514916852	-4.00768701313	-2.33106118938	-0.773251912037	-1.83091489554	-0.830177962091	-6.37999359572	-1.6328034796	0.434665482453	-2.13917965699	-0.220484688417	-3.46896537668	-2.27267640585	-0.547839244907	-0.534508543417	-0.208620856427	-1.68505388272	2.47114390073	1.74297209953	3.79533095097	-2.93694684688	-1.93594242716	3.13133898945	2.79736719565	2.23927683657	0.956874605903	1.45600647459	2.05084238554	0.80948804	-2.10866682	1.51189097294	-3.88675628941	-2.38676585036	-1.51585140553	1.5348618897	-2.16253953275	-3.4749504102	-0.314702965275	-3.0167461549	-4.89830841988	-3.54856020964	-2.86242519184	1.99878078161	0.124713909498	1.22318905033	1.35827811274	2.73598536959	-1.91294887174	0.489128947481	-0.444699623607	1.89481445595	-0.726054628958	2.26251707462	2.22960587433	-0.640909137802	-1.29525930976	3.67168470309	-1.97344757476	-1.44435623736	-1.43211105695	-3.38634778404	1.32719428496	1.14872981356	-2.59706432675	3.0695261984	-3.18156923491	0.713709426133	2.32849171054	5.89827425486	-0.313770115927	-0.206182767273	1.81649761045	1.87662929183	0.404720233256	3.00465936745	2.83280662375	2.99823384946	-1.09350603607	-2.67182885116	1.99235774992	1.09613435464	-4.68044255128	-1.41042609047	3.44787891218	1.65217545947	0.193659998897	3.22607701642	-3.299400361	-0.894951703299	4.23695079867	-4.01647921526	-2.79269036828	-1.88754689906	-2.53750555919	-1.6268526104	-0.634715349752	-3.95090308436	1.39905524	-1.07203392096	-0.734872709767	-0.807590710478	-0.297542207074	0.91124760464	5.52068654537	0.86608597429	0.380025478694	-0.0459516699092	-0.128398863941	-1.2513342307	2.20726064758	0.359160465365	1.0954311835	-1.52795098099	0.538657477731	-3.10270623705	0.163505970593	3.73057515076	1.75456228781	0.319135572851	-1.50774407712	-5.35306923786	-1.89694591557	-0.630481787161	-2.98189108776	0.572931108651	2.17530135558	0.0128073495028	1.19314693119	5.37579513199	-2.06987035204	-3.34198769319	-2.65646420402	1.1810197596	1.78932287602	1.04096671013	-2.42700252088	-1.97623536754	7.08646097017	-0.0997027916191	-1.06077395838	-2.59517560232	-2.04240089901	1.64530856237	-7.03172053232	1.9406225	-0.788490370563	1.43277275275	2.07092202573	0.0103319274105	0.157270534982	-2.5776133959	3.64054217382	-3.84982446893	4.09118662747	2.80204779944	-3.70632177133	-2.83021511695	-3.20160833554	-4.67663945934	3.87938328311	-2.01507387496	2.00187590509	-0.744100506454	-0.384463671062	-1.33207688543	-0.0221713454931	-0.487012327476	5.37494717294	-3.30089479161	-2.58013038057	-4.43935062622	-0.661818533793	0.230610043705	-0.197278138515	-4.52517217407	2.91759033973	-2.14494370207	2.15175625925	0.292838587372	-3.90643035218	-2.51226517217	-0.27194009804	4.30543852918	-1.82138200456	-0.866552654944	-0.218458241809	2.41711948513	1.95422342188	2.44199521708	-0.600735246282	-3.68245402458	2.2081241539	-0.399339915133	-0.0109374677454	-0.967744670849	1.13197719295	-1.05581998322	-1.74898389824	-1.90566950076	3.03819542197	-0.459598302372	-0.897348025732	1.66843069657	3.65358280836	-4.49020755041	-0.620280722342	-4.53803699926	0.355203260932	0.339821527744	-0.95028314823	-0.677991702178	0.563177977702	2.26726759514	-1.70898489182	1.39096053793	-0.481364292996	1.54372638462	2.71727248107	0.202863569078	1.37789411209	-1.5986987074	0.738169303219	0.162513055209	-2.09528314171	-0.913628221768	-3.04962081183	-0.263295548985	0.549449767721	1.15186090975	-1.68612737507	-1.12837923039	-2.78757122473	-2.15173324102	-3.22209861752	-2.75213400984	2.34483951721	-3.42726619326	2.55457361482	1.10568256459	-3.10448665245	-0.45803606726	1.04484931852	-3.33004121246	1.570470659	-4.03664664884	-2.20217379817	2.17065854265	-4.82106065786	-0.0437154282431	5.15185373817	3.8832583474	-4.98146801395	-2.68901814793	-0.46335300282	-2.40798646561	-1.3744774209	-0.641116825821	4.10672695199	2.23479030167	-3.67766717884	-1.20553260778	1.50301717749	3.29502253952	0.674874400202	-0.853613956638	1.4330077936	-0.127395555226	3.63523909747	-0.0697538367184	3.74516707427	-0.954314704638	1.16362722535	-0.00224667014485	2.64747924185	-1.28557692814	3.52781338153	-1.3309168675	5.01362716907	4.22399090811	0.851990793628	-0.533518631031	-0.54348171246	-0.0886614671757	-1.96037333137	3.88647222163	1.43159590825	-3.31373684924	-1.24911004168	0.0825538989646	-2.12599866252	0.817366463795	3.26517118453	0.273896441976	-2.39354283606	2.22008679334	-0.605782319975	3.05149241631	-2.19270708887	2.12328735694	-2.70921914648	-0.309612921617	-1.11946569775	2.89027867397	3.86214870841	-1.81212857284	2.45792505546	0.11161345993	0.458041608716	2.74751398872	-4.93758286705	-2.15391085408	1.65086195667	-4.55415358504	3.37727651263	-0.293079452999	-2.24044096908	6.42911800951	-5.96310488505	-0.986452978509	0.330402365266	1.85784081646	1.05659276922	0.477711077	-2.2313624827	-1.77282667217	2.39700049278	-3.40302154343	2.01063265204	2.97077596889	-0.0147367185266	4.75128889332	0.402216985806	1.91550680166	2.4452495786	-0.277170846709	2.34221466809	1.90750429447	1.09483807566	-1.33609599758	1.7528708694	1.70352843471	0.792165646176	1.52587286121	2.97777008253	-3.95391394761	1.3006356804	-3.07153171888	0.412129779271	2.63391660526	-1.89926877175	2.65635675908	-0.969901120263	-2.23781330867	0.0293753911531	-0.705059421302	0.593933161199	6.71349595868	1.39893917707	2.3615997016	-0.377133742877	1.18815143685	-1.00241282218	2.39720878761	0.750793945244	-1.43190773437	1.01133297649	2.2264097387	-2.61782940615	-0.241016937053	-0.11919199939	4.91798163473	1.40271194801	-0.361236703133	-1.41035868296	-0.835735175621	-0.149045558171	-0.087381996672	-0.805488418702	6.68987387991	1.55341936841	-2.10811570743	-1.60265772491	2.0204841765	-0.629877991676	0.392515088552	-1.97256189472	0.974239191284	-2.38529823292	1.23648050299	0.590849589779	-1.85546750105	1.12091112958	-2.08088048241	1.39002365119	1.90019864414	1.35760421837	1.09857343325	1.62207426035	0.675268169373	-3.87375498168	0.503463069082	0.348788726814	-0.234637283043	-2.28969312978	0.221078258231	-2.42069998444	0.104621547951	3.55714750289	-4.2289640074	1.75664743035	3.41801032645	-1.24754860444	-5.13420285293	-1.14548311249	1.79212026697	-2.11655597628	-2.51504524749	-2.01713736711	-2.98281667005	-1.49039536867	-0.666189010831	-3.15403260288	-3.91811705535	0.888196830181	-2.12340647639	-1.07698885838	1.50473700081	-4.74656525128	1.37030095594	-5.78933121754	2.03824086693	-2.70251034294	-1.3163652823	-0.261673490626	1.1763173409	2.23049058479	-3.59866067928	3.97674673664	-0.595785773122	3.67370151551	1.25206324077	-0.398727051371	1.36314690955	-4.46343239139	-2.12343452994	0.873877766111	0.961867627116	0.17668459674	1.10722801854	-4.24755665373	-2.33588039079	3.05430057808	2.75143718036	-1.28781618444	-0.183100719937	-2.59978842768	2.53490263968	0.42800760514	2.94571054568	-3.55787369911	0.13195638211	1.05700078685	-3.87834180029	-2.30634295576	4.07486475774	-0.989156034632	1.20497431803	-3.67338263295	1.54090444941	-2.47427085725	4.11972133215	1.52876977417	3.42449432192	2.11526309281	1.09120028822	-0.0034277011232	0.957255967073	-0.0146148	-2.63797185354	0.416198841916	-1.75119951091	0.517636200976	2.50687829678	1.17202390161	-2.09021060839	-2.13633608031	-1.45673506928	0.577918002061	0.552190889579	0.204452504671	3.09123488555	2.73028119317	-0.982032543239	-1.70158987408	-1.67839254285	2.44608205639	5.11699337303	-0.809395878521	5.17376065932	1.86549182733	2.49897838938	-3.52470407326	-2.23976097893	1.83591828237	-0.907776776717	-6.42376323837	0.293950380195	-1.35136599553	0.17480580099	-0.975254064864	-0.112690897604	2.84758950471	1.21911794414	1.07304523629	3.705888969	-0.0325256719145	-1.36017823265	-2.38591209065	0.723195387135	0.44282599856	-5.78385987968	0.519631132415	-4.22889897801	0.422340667483	0.0105145742072	0.768915736023	0.767504213701	-0.343951625629	2.60422594194	3.10734705553	4.75827946687	0.721632324606	-0.937846086967	-1.22095008245	1.63332991131	-2.99833780041	0.257678809676	0.107158137897	-3.50845078336	-0.404091392874	-4.85095011534	1.40162828569	-0.649607791994	3.9990676166	4.27917412167	0.0529092515687	-4.12658257729	-3.34266823389	-0.743173759458	-2.68948010209	-0.139700063155	-0.576275372848	4.63674110119	-0.253079712091	3.14840737926	-0.133615076427	3.33042239527	-5.89369227865	-2.94971192258	-3.29749533416	-0.988425333328	-1.8855001338	-2.6344246908	-1.98925757815	-0.194398300373	3.07289350553	-1.57962256074	1.17827051423	-0.689290933637	-4.63132563475	0.0292738092265	-2.29303813703	1.44614539849	-1.32057840771	1.01183254773	-1.38590471684	-3.60224144266	2.42340635078	-0.832068104239	0.506062917315	-2.11372527668	-2.80390928583	-2.84702994935	-2.24410934569	-0.700754186266	6.14431650338	-4.10069844347	-2.78479843689	-3.46920825374	4.81838596247	0.992309874409	0.708827865097	0.131303611071	1.79505145264	-2.55672468656	-0.126797094856	-2.52831849816	0.151125833776	-2.31682314414	-3.72948273371	-2.43397136308	-0.791853377301	2.38330141325	1.44183786448	2.09047341297	4.93502009387	-0.0114788442707	-2.85475142907	-1.62360663279	0.513804157482	0.265796561407	1.64455329661	3.60240120166	-0.909874030266	-3.04388454773	-1.96547490625	1.52432199749	1.2168370966	-1.19532571365	-0.371302534748	4.94713013887	2.67705538611	0.559915009625	3.87894401746	1.56923738821	-3.03965628744	1.46592610348	-1.01768532527	3.65904455985	1.83733664001	1.08994652205	1.06298993091	3.13799246737	-0.651304818197	-2.02303402679	-5.78968332396	-2.87424146321	-1.04657442192	0.700627776242	-2.83004099624	4.69141349999	2.274026996	4.81525530628	-1.45983672802	-1.26607304932	2.20894422378	-5.47330160991	2.92018697147	-4.5654812304	-2.42221943617	-2.50433003449	-1.93912502213	2.57234319492	-4.92584223317	0.412244977061	0.87372366495	-1.14037091888	-1.59802230555	-0.780525351698	-0.576022750139	-2.45804788365	1.06137245213	2.10640533819	1.47008409113	-3.02521561863	2.27737123353	-1.08647857489	1.17073438225	-2.21018887025	-3.96604044148	-1.25575752934	0.23227467728	-2.55294440293	-0.0761552605942	0.846736040167	5.62555557543	-0.649441516288	4.6444711834	2.18009098848	-0.825971229738	0.2364362518	-0.417073860347	-0.332854758445	1.56768749069	1.80809221933	0.982007607818	0.66996843568	0.443256195562	2.12303807985	-1.52909031796	-0.152565242613	-1.17135581978	0.0488339212331	0.687334728257	4.89628165881	-2.54147292453	0.865418315537	1.88771656087	-0.809692789637	2.32352494615	2.32651481805	-0.446731795866	3.84824294485	-2.32100956051	4.71880267509	1.9821017438	1.79547600264	-2.29682208441	-2.79861527849	-2.37622680442	-2.03143169467	3.56638794404	1.17151842541	1.99631233786	3.36264989639	-1.187198181	3.65458955604	-4.25910565435	-0.188123010927	1.39754852362	-0.58636213999	4.01301486162	0.397342574121	-1.88036268788	1.2438729231	4.24213104246	0.0729084932075	1.28989149965	4.79443449975	-3.88496944579	-2.41892822565	-3.12851479779	-3.0330631714	-1.83682880808	-2.85339110681	-1.24894393465	-0.920802827809	0.0683866862362	-3.12191543506	2.18507297253	-0.87707234024	-0.764778255309	1.22971049475	3.06112115199	5.54171407666	0.118476759712	-1.32522771557	4.39085840137	1.32793989466	-2.36034522523	-1.89834018943	-1.98578758776	2.1668956121	3.779296371	-2.74867632093	-1.07473556429	-2.95841876997	-2.30922765204	6.80636551044	-5.13112007723	-1.37519968395	6.29748351038	2.5337718733	0.13612209287	3.83547216067	2.09294507328	1.0744729645	2.91241009005	1.78391494923	-2.29397380469	-0.233759527128	-2.04664165882	-2.18284574787	-0.939655437483	-1.34054080068	-1.62999330461	1.62894141878	-2.16281114662	-0.322070794112	0.901091923939	-0.575556732024	-0.205511278061	1.78113434446	1.19474691809	-2.35552984442	1.8761618379	2.73254187255	0.672942297318	4.58916475256	0.633202906004	2.21307107978	-1.21747632622	-2.10751058069	-1.68291846841	3.36280972948	-4.9201926671	2.12940193265	1.09667659345	-2.55840393427	-0.543013995516	3.13050142868	0.745119448717	1.92395841709	1.26010721822	1.12688735045	0.510879908025	2.71131867873	-0.188745273731	2.31409017394	5.10236015142	1.28315137898	-0.975757451644	-0.348196705903	-3.66641299573	-3.59130753053	0.779000348148	-0.135397844344	-0.303443998149	-0.610589097836	5.37931225327	-2.10470051782	-1.84121308073	-5.37871518596	-2.42096787654	-3.00802981942	-1.33519397477	-2.00393819308	-3.11298380844	-2.53890070217	-5.33592518833	1.69682055734	0.026390682534	1.57570299058	1.0309889521	3.67423178519	-0.393913058109	6.58724371424	-0.159311318329	-1.02378657416	0.140350640851	-0.52954365339	0.564140143982	-4.82253606241	0.00871239748857	-0.635215304103	0.433955815718	3.25625449073	-5.55558018737	-0.540172655791	4.68262728142	1.54952864358	-1.73126165839	-0.4688140035	-0.79591774952	0.312399473571	-3.1197241709	-0.0815845282381	2.1892586708	-2.80397841695	5.87464897556	-0.956063927899	1.96936201359	2.43878250035	1.19587641153	-3.46230338304	-5.63079215573	-2.22491612932	-1.56003153834	-1.46667261239	4.77940173377	2.57759134314	6.63264472181	-1.35301463678	5.36383296847	0.820272071599	-1.10215566881	0.21500945144	-0.706845660093	5.40306003378	1.00426790837	0.173744091629	1.93866526764	-5.04370466211	0.0471863709535	2.98454740654	-0.000685405340629	-1.98815666045	1.02663875741	0.984450202194	0.433937653381	-3.1568809009	-3.71011530064	2.93660204247	-0.363739228699	-2.92398171713	-1.67527424346	-0.576222294963	1.56384230964	1.5782865648	0.550683143769	-2.92567918638	-4.76582102902	5.14788567319	-1.20871447615	-1.16272267342	-2.91600199804	1.64334628817	-1.13653822097	-0.305837747678	-2.87326626183	-2.57199475932	-2.45183237742	-4.15698501361	-0.849565837504	-2.74884132539	-1.32212969528	6.00631352019	0.937112164501	-2.60620123288	0.722276386409	1.29400762489	3.06380664864	0.784488818842	-1.42660816657	1.21617523569	-1.33116662543	0.555441796358	-1.02053331426	-3.02470300784	4.01840655754	1.23390833715	0.596005875906	-1.51552739777	0.814495238188	-2.81314648488	2.40603898419	2.72124754719	-0.552249247072	-0.542020759405	-4.43613596307	-1.08246220677	-0.112546083743	0.42520403131	-1.92533177225	-2.81108208334	-2.62192940967	1.32160631915	-0.000390481920051	3.21618259169	0.198655856078	-1.57734492858	0.125961328047	1.49060769161	4.93315656345	2.15187719718	-0.667193192407	1.47426713366	-4.21794415002	1.37902678705	-2.2932901259	-1.76646208912	1.10660519832	2.436934781	-0.457050374907	-4.00100315164	-1.12077293191	-2.77725095704	-1.66378383583	-0.718055977521	-5.20320631398	-4.15914308146	1.35893235152	-0.414773502961	0.589857160183	-4.47622774013	1.96418016668	3.20017156152	6.06715059302	0.131909370981	1.79753403614	-2.6044865513	6.46729439158	0.416137891743	-0.659041696324	-0.90916187362	-1.65112796327	4.16228119115	0.0589614878953	-2.23713709009	-0.475249622683	0.0422992624626	-1.53978111846	0.21340040601	0.317564662487	0.968242358767	-1.97654960142	-0.461187989143	1.66515335865	3.47141722984	-1.10719574828	0.477442716758	0.676992423298	1.00717225589	-2.28092199733	5.23501971327	-2.80207236945	0.491054099751	-3.10322956337	1.21556586279	2.8730631326	-4.8858792341	-4.02876450714	2.95053625677	1.52494375118	-4.87246942031	-0.22471503995	-1.31797182043	4.30507763455	1.29565972906	-3.91095384904	-1.09554402202	3.13488282464	-0.725182219832	-5.11662045608	-1.85750676401	0.194694932458	3.0303974773	-6.88180904418	-2.22888224128	-2.60575566056	-6.31990640718	3.32537716664	-1.65094690004	-4.57349586018	3.60074311744	1.33579628057	-1.20977705314	2.80148420783	-0.713330120639	1.5027998134	2.49932407673	1.4125291272	-3.61801056001	0.943878301002	0.592716540119	0.0931357171387	2.0744085512	2.77046157103	0.960221596474	-0.419132348946	-5.2734022781	5.66726577363	0.643750992825	-4.70600270613	0.616237077791	0.571846416485	3.4705903075	0.772097979853	-0.987564760957	2.45103668483	-0.735835917841	1.74000221073	-0.452856058111	2.94572938741	0.601933639204	1.02200878584	-2.01775511035	-3.82813109417	-2.43766304516	1.16527206457	-1.14594940409	-2.77093778734	-4.16162637711	2.02960337347	-3.46202415727	1.67048998611	-2.1878633698	-2.81639408803	-2.63336368993	2.06325056608	-3.85753156461	-3.93590432184	-0.915340554276	3.14273032662	-1.96816229988	1.53125901693	0.148158590353	-1.22014076374	1.51501508488	1.35951677406	-0.481944741977	-0.113078699861	1.12055568837	2.70547051213	-0.126347460735	-1.25537003787	-2.0379639517	-0.143508475991	-4.18534473093	-2.15201652924	3.80308892818	2.21924632519	0.906620161662	4.27041148839	0.871911677457	0.616429703266	-2.88105730687	1.13630551396	-1.06233122068	-0.441374397951	-0.079359023547	-3.60635167146	-0.697962855677	5.02904080905	-0.967117617869	1.60763966146	4.75625165348	0.137534784665	-1.71739719456	-0.349036190742	1.08546083701	0.702515054707	-4.10964470554	-3.28211670365	2.85786600481	1.45137403642	0.0079510445642	2.04190831816	0.721984269892	3.54192108412	0.0900526826635	1.49482103576	4.81885228341	-0.708843407353	1.88145473121	-3.56313790855	0.827533064912	0.731374698997	1.70824180677	0.496362542607	2.17467101082	-1.03233904089	-2.60026299308	0.331933217127	1.67155146575	1.57678584807	-0.122782993814	1.38433451444	1.09242654968	0.872842690159	0.505282821473	-3.20676074139	-4.47687197834	2.72282498799	-0.568250874884	-0.978427921649	-2.11130306667	3.58935786474	-1.86836551879	1.41179893527	2.40677176793	-2.91250483272	-0.806070852516	1.38011680089	4.85780403033	2.62414448066	-1.7461322625	-4.40910981417	-4.75224305986	-1.70803490151	-1.12098189113	-0.129820860641	-1.00384731121	3.07762042614	1.29735179624	-2.14624677064	-3.52224281855	1.26160837203	-2.56740265141	0.711544272194	1.45525010865	-1.08942873079	4.21816277946	-0.773384827712	4.86785730032	1.5896652694	-5.69739631998	-3.69914034741	1.77240586744	-3.73067556533	0.338667000759	4.12380958014	0.176052766101	0.36753044962	0.64763160029	-1.50779627598	-0.798872560008	5.70824196645	4.245142993	-0.690768979094	4.77282821999	-0.860294976921	3.3586478955	-0.0457630417868	-1.35593032013	5.4964834521	6.81847427937	-0.871022392946	0.103547120062	-0.521758251024	1.56365543966	-1.70033145774	-2.74093066801	0.950819628111	1.92982815391	4.93085083563	0.0576216187366	1.47537791023	-2.68529736669	-3.95710340018	-1.0793013242	3.6372355092	1.43694470085	3.3432883302	1.18978358944	-2.873369641	3.71459733927	-1.5091485438	1.64468368599	-1.51593121489	0.392449261824	0.3994980721	-5.25324688088	-0.306485275353	-1.0645947068	0.445296558796	0.523354322207	0.26590171292	-0.0079475210107	1.18778967945	-5.01704804969	-0.362889902833	0.412412936504	-1.08750542184	-0.721805606234	0.551887128738	1.02835892889	0.255778385364	-1.08546077715	-0.430885379887	-4.01044209752	3.02151128983	-2.02285893181	0.384697190467	0.0352612354904	-1.355296758	3.61840439412	-1.30173796669	-1.01104492092	-2.68872367395	-1.20688972819	-0.638122364481	0.60188557089	-5.0248064349	1.24651980857	1.23466350562	-2.14534766655	-2.83569660436	2.17798181139	0.649483899839	-2.07488265756	-1.00683758707	-4.49714695409	3.54520625045	-2.89660787899	-1.77299415199	1.96431492395	0.329018105135	-0.245608305744	2.95366727162	0.977836115474	-1.09240185487	-1.61127538579	-1.19636707169	0.472793580575	0.419449689333	1.64871388223	0.764121474217	1.72182988981	-1.22757792284	5.75503130128	3.91934955181	-1.97178804944	4.33688355632	-1.88619351906	-0.139317663345	4.35089509858	-1.40908427823	-1.30117656715	0.21499715912	0.877564290848	0.0837158483404	-1.42856655873	-2.24089961866	-3.47583059026	-0.831686059171	3.27040496266	-4.71761283798	0.855861220048	1.74213650415	2.54636172969	3.00041647247	-2.08688892115	-3.6364270305	1.51867073691	3.00753459414	-5.52292766895	0.807756171274	0.328031416885	4.76570059948	0.891472096676	0.0830361163181	-2.38456537831	1.00389911431	-0.00306572131275	-1.99681379837	0.0980468153552	0.17446826713	-3.75364527865	4.52922844121	-1.12649766033	-1.83611179995	1.77308607484	0.0432053358485	-0.349488256545	0.47059067917	1.54027227819	2.75017459811	-1.32385359017	0.177447001907	6.37779689426	4.18389398159	2.6033943428	0.326753969783	-1.74424975496	-0.771401192602	0.892547541436	-0.980877662099	-0.738243932964	3.33162109566	0.203075688287	-1.28963935903	-1.34463303736	0.827534797125	-1.06181565888	2.56075032891	-0.577600746288	0.0470962331674	-0.366871685911	4.65133816595	5.14638314521	1.6587053165	4.46226250953	0.100404985412	-0.58730446845	-1.13150857886	-2.33738035425	-3.40014721464	-1.93400957287	0.975806781171	-2.15142160061	2.34099439347	-1.06900300564	-1.06437974972	2.60547635972	3.55002561478	1.19024140355	-2.24916129598	3.69581905157	3.51118644491	-1.29962176544	-1.30877940481	0.145310114328	-4.41039579272	5.29649427367	1.94746188507	2.00878029015	0.703648763662	0.472520970078	1.38749483673	0.862582940247	-0.956381508827	3.23763699771	-0.911661961896	-5.77494056222	-1.00259872856	1.45379535322	1.08133980295	-0.0294047969101	1.05491535089	-3.68910859723	0.0838570083882	1.53219929267	1.03500103178	-0.940170165047	-2.18318251647	-2.25333947358	0.548427699324	-0.471676280106	-3.0852695581	-1.53207492718	-0.244679716335	-3.86151279666	-0.952360195443	-1.02664265608	-0.502607960872	3.5819035127	4.0677880334	-3.50895714153	-4.24428978982	1.13293862339	-4.19216271016	2.72137890146	-2.21508136573	-3.34470422864	0.992185538095	-3.32434953878	-2.15638842275	1.73468455327	-0.71855933642	-0.156940775796	2.9580215978	-2.66271408758	-1.21411955954	1.70084022313	-3.32228674482	-2.54162233834	-1.63926677049	-1.52982209417	4.1002955431	-2.6133338353	-4.55528786223	-3.65272285255	3.98625812336	-1.08203979439	-3.51060068729	1.26850334543	0.000750550832017	-5.46753825881	-0.871986160821	-0.574336360994	-0.0415710112698	4.99810072678	4.70175788352	-0.508691621764	3.46818169243	-1.94356804717	-1.18727127888	-4.44650524128	3.2679910982	-0.71897493047	-0.379833966169	-0.220380159495	-0.145529579133	2.55682350462	2.31463247521	-2.49513345705	-0.438520106398	-2.4238259997	-1.81541200558	-1.19941446583	-1.78468272119	-1.51562914208	-0.269724973165	2.05262786281	-2.49465650613	1.71483545154	-1.4878604417	2.75758290659	-0.611031106196	-0.990580534617	3.488930321	-1.05660818328	1.23537502333	0.564243436034	4.98803825282	0.548125380885	1.06211173265	-7.20495996448	1.57163786433	-0.87145601441	1.81403139992	3.75647743801	-0.409661522285	0.424206247511	1.936107559	0.764938965226	1.91137458766	0.792924709317	0.323557059469	-4.63562473253	-0.244939475442	1.84879817381	-2.71122426291	-0.0947889050691	1.60757088994	-2.64428796678	-4.39368977054	-0.638903188334	0.790263890863	0.789726355285	-0.0921626032074	0.805787463149	-1.24859829094	-2.07149799012	3.64694341287	1.0214032886	5.59086927374	-1.06550593972	1.07025780883	0.289513537462	-0.971496329554	-0.495112288834	1.00936585364	0.4048272381	0.108344948646	6.36536328919	-3.81472827169	3.61281524137	-1.48405228111	-0.676656237378	0.704534803064	2.58006245657	-1.57556108904	-1.20539746069	-4.04667562939	-5.46064811581	3.80949885	2.31089343118	1.99253674883	4.07731164078	-0.390716225933	-2.42199839478	3.45876762392	-0.38594296141	2.81510392684	-1.46582482037	-1.05455331279	-0.539842141455	-1.27781151903	-1.10221110226	2.55576758379	-1.18262654589	4.17146160952	3.5920857726	0.0390476395971	-5.37982929245	4.19479067587	1.54448410953	0.952372820731	0.937487650103	0.86505403099	-4.31950732985	4.05349796223	-3.07415360091	3.34827562727	-0.0635576497607	0.356797417925	-1.43935465268	-3.29394465391	-0.373570706999	1.11006823166	-0.672861929703	2.86255586479	-0.574842677692	4.64443021822	0.0194065574232	1.35917077324	-1.40123129247	-0.997382633773	-1.6582914609	0.742699560964	-1.56147408933	-1.11481905435	5.43899622759	1.53913499841	2.02870191311	-1.21732283673	2.63646465881	-5.12090840093	5.50953925569	0.919434933635	2.38329826497	1.83966383315	0.109733207975	-0.768695688938	-0.962517317386	-4.04975929401	-1.26955195223	-0.594292231582	-0.0706072468354	0.0400340260296	0.151088889286	2.41639790817	2.03493803138	-1.91941925386	-0.23789612781	-0.112158370241	-1.47334352653	-1.14914078211	2.52528546846	-5.07840999336	5.91254336134	-0.417449126399	-3.92176263898	6.57613460083	-1.45989521771	3.92387764641	-4.27526353007	-4.93823075801	-5.59046246436	-0.0516907635843	-0.864448683017	0.625434506192	-1.22250779066	-2.87757690024	-2.93403275187	2.57587392106	-2.3475703667	0.856556240944	-0.0353807300948	-2.09308395791	4.26080371811	-2.90234682439	3.46461609196	2.4115099151	-1.86656851415	-4.95071783467	-0.900399436964	-5.31247282456	-6.10047869441	-4.17320768617	-1.71385393316	4.15202855873	2.07490632239	2.2284415603	0.677493122073	1.50281601811	-0.0685035010004	-0.74989133557	1.73569703642	-2.38447453141	6.0619902406	-1.10050978033	1.55064245457	-2.84304525233	2.43239981598	-0.664996614131	3.9939238733	4.59727358267	-1.85983763551	-3.13226161635	-2.06245057408	-2.73544712935	-2.25174704975	1.77913500867	0.318159336488	-2.25765309951	5.03390966541	-1.37297435991	1.56551389531	0.612892316555	0.857629834816	-1.31421164921	-2.11138803156	1.43178304737	1.19077818394	-0.23452741709	-0.342955448323	1.99943438536	-0.478782967726	-2.57656087573	-1.84369335996	-1.09856615121	0.44311617016	-0.488660110869	0.148037165819	-1.56184907348	0.73088593136	-1.06132839254	-4.74195111071	-0.526804879998	-1.24598273666	5.98152179679	4.56713284675	3.86218100156	-0.635846363953	1.407533408	1.97350218827	-1.51738808163	2.9244566282	-1.66319296921	-2.75713634213	-1.68669228725	-0.74307613028	1.32020713403	1.74354819839	-0.146204034462	-1.01677664207	-2.29261830282	-2.6566919376	-1.0632374789	0.196846504434	-3.63176821715	1.00199825661	-1.323055079	-0.48783767596	-4.56566218142	-1.99917168352	-1.45563194473	0.403816984591	4.11358804517	-2.9638401384	1.53258632593	-0.833572802337	-0.119437320575	2.59765766672	-5.55587310622	-3.81515238187	-4.15093316384	-6.06450938871	2.54930753855	1.70708073327	1.82027833648	2.16015441108	0.294966771936	-2.49118478365	-3.81963362607	-2.30361239042	-3.05145974446	-1.73906966949	3.37854820608	2.5562849389	-4.17517124647	-3.63086166214	-0.739739955335	1.16643895137	1.77614335119	-4.04122966	3.28594428848	2.00848572467	-5.42524362487	-0.58481415365	2.6176519465	4.45876977956	-1.04315591777	2.77673509724	-2.70172737712	-1.7902149445	-0.430061776699	1.75939848774	-0.720034075225	-0.211264503755	-3.3663734754	1.75171500721	0.560564490523	-2.49091609621	2.16888959818	0.818115468874	4.9066793506	-1.49715076087	0.659362861095	-0.0594583492082	5.03163677509	2.12835017848	2.70900183023	-5.57493752447	3.47301138953	2.97458672482	-4.21033658478	0.0320294995708	1.33675959476	-0.706039925752	-5.46322476719	-2.43908212273	-6.37958208863	2.63641405849	-2.89110917821	2.38746569874	1.23453231038	-0.0238201049815	0.265019398753	-5.28719758607	3.62503943877	-0.362466269078	2.68621768425	-0.15298583238	3.43365857634	-0.48987562811	-2.44473935767	-0.2997018603	-0.333073413649	-3.48522903582	3.87184626762	-3.31849289206	2.03583043605	-1.19504223603	-1.25963339584	-4.93096773232	0.16816268921	2.25885870056	1.01586578807	2.97237233838	4.82806720787	3.34158987964	1.54337097053	0.272436797456	3.9006442725	-0.19822390628	-0.320473502878	-2.23051583069	0.117259046441	0.905365198468	1.08435027107	-7.51934459089	2.26723857455	1.08166209918	-5.35160250444	0.285654868051	0.444663080779	1.33429795491	0.930461505985	-0.564406283391	1.98548497697	0.423990067548	-3.57576100272	3.74494359621	-3.4027590323	0.849141240336	0.624075899179	3.43834075309	2.4225540717	0.708131459745	1.03661459355	3.2241464061	-0.761633453192	-5.42548400671	2.47605431108	0.183597842151	-3.81998881084	-0.0225934170488	-0.361653929905	-0.785227176814	-1.01347954434	-1.5777245843	-3.11628281072	2.82895983624	0.568981934463	-1.8111999092	-6.6537787669	-7.77927878309	-2.83524990351	1.53124531981	0.382311923725	-3.46393590399	1.70352512376	-2.47336072271	-1.59806726147	-0.797172707472	1.05812018571	-5.06093950862	6.26081132731	-0.123976752682	-1.50197379148	1.20873428597	0.362475324001	-1.02865279434	-2.43483908934	-0.836497847491	4.99704580216	-1.34707339631	-0.125273119912	-1.13989402176	-2.31900819253	2.35566100932	-1.4272439823	-0.984779652919	-1.7767988134	-4.1589809883	-1.43056253283	-2.81592363525	1.24066749806	-1.0103673564	-1.30211627575	-4.48197723526	-4.92880525806	0.528904267326	1.22041203041	-0.0472038722843	-0.497451075235	-2.84008850637	-0.00378452404601	-1.12711369873	5.44149932241	-0.533406580022	1.28035281621	-6.06751066666	-2.58027165928	-2.39822794759	-0.613560324426	0.861320969345	1.08351838831	-0.488156548109	0.964570157482	-1.38557551455	1.09642242771	-1.58169979352	-1.57048253068	-1.61958960959	-0.719368416936	-1.37179261579	-1.01399247406	-1.14830775603	0.879101193808	1.11217238259	1.44322786723	-3.44163173834	-0.212593071877	1.37940913613	0.391010253227	-3.95253346551	0.931129725395	-0.91244194189	-2.872152069	-0.99074025905	-0.23569693156	1.34729088537	1.87079075163	2.23959983616	-1.81537712308	0.910860526142	-0.300059414082	3.97370974871	3.52804520652	1.60332805196	-0.38248411237	2.9352461629	-5.12618045506	2.55671275949	1.80329993098	-4.36115088015	-0.648110948922	-0.148728475976	3.77023044295	-5.13014922629	-0.786818327105	2.68185222335	-1.7895834983	-0.0381446289026	3.48560771096	-2.4563519447	-1.1152965698	2.33334383303	1.22584901172	-1.52588704379	-2.64929003583	3.65736742267	-5.43317075132	1.58486933361	-2.26578189607	-4.91229932763	3.03204157269	2.05005657946	-2.76980021699	-0.836981011524	-2.50601887786	2.21451090057	1.88885784915	2.6107503802	0.281068507323	2.40456822249	-5.36279238769	2.63459515382	-5.1725709697	0.764203253435	1.23683480582	-0.644950961682	-6.86777756681	3.66346204789	-6.25723285686	-0.238984557222	-2.45982764594	-0.594994987231	0.977358411342	-1.58349252691	-5.45139625696	-1.50398719879	-2.57382819239	-3.7887296845	4.55005904107	-2.18046854437	-2.53254790402	-2.78994845067	-2.19907508069	-0.0670502513196	-4.59816164166	-0.875659758943	-2.09254770653	1.28484003167	-0.00774441414199	-3.13381877831	2.64960715956	-3.73599417321	2.13690199198	4.57654959563	-2.11887561966	-4.18714749753	-3.04723196884	1.01269675641	-1.63328813897	0.673051788581	-2.05230506802	-2.35065107326	1.48081113523	-3.42963765802	4.95052266841	-1.7059090789	-1.75201714023	0.196279775713	-1.25766234257	0.698581301682	-3.77010390914	2.68658462292	0.749342216715	-2.40116168651	1.55711147347	0.315396755659	1.27129919665	-1.01464658355	0.136488831056	4.77747054674	-1.76526060219	-2.13751793712	6.04188197353	-1.49393264685	1.01950862866	1.42515687085	3.4749226302	-2.72298453365	1.82156396683	3.94563224201	-0.284976419194	0.214892916643	-2.23626909362	-1.67243207006	2.05269211203	-0.602677522878	-0.653020240798	-1.11723897706	-1.62550899506	-4.51839791054	-1.80524168532	-1.41632027257	5.51702356082	2.05580807972	-0.39481470757	-2.59653057393	0.520234261969	1.62077057511	1.47334492096	0.365539603974	1.758404851	-4.00732576617	0.454277906816	1.5706024522	3.40261903101	-4.00471989698	-0.390707790022	-0.0112551418279	-1.95351792965	-1.60611728883	0.502644569719	3.17408377836	-2.75690348957	1.92915815831	0.311686502989	2.56879951207	1.20637944801	2.41953749464	-1.60809307393	-1.16107690306	6.05596753082	1.64912383414	3.34517887572	-3.08275416352	-0.72172691537	-2.93742168292	-1.56065553556	0.894857884549	1.39535730664	3.47469232122	-6.1457797555	1.30323273204	-0.625238825853	0.953871693008	-1.9957137431	-2.8304986376	-6.9780667273	0.935679725449	0.4173136669	-1.31236419851	1.39860661329	-3.65626367287	-0.881100057331	5.3451766187	-0.857637043153	-0.711409867892	0.921099864655	-3.65030603504	-2.89056165887	2.00686420602	1.38665580799	1.87047516019	-1.3025450517	1.18076888096	0.868244411244	-2.83679348473	0.431157817243	0.590882919504	-2.06991502122	-3.86208535174	0.861115419416	-4.1135886043	2.67767444499	0.254416019471	0.258089647988	1.75944816101	2.75444442085	0.71338091557	-1.62336197696	1.21354636071	-0.339923744971	-2.7345398421	-2.86316217364	-4.05132453134	1.84558886249	-1.38109606979	1.04233098198	-1.1891259267	-0.458804524454	-2.32076032995	0.184580443319	-1.04600716165	1.97407512856	5.90688715157	2.0347664174	-1.00378366011	2.16630884276	-2.26732440271	3.47193299386	1.82935787888	-1.9630101269	-1.85599764683	2.54045190836	-1.7066969446	-0.864444606199	2.40331190967	-2.05062546212	1.88022451233	-0.355140129064	-2.84980640371	-1.0793477619	-2.5810560897	-0.371827875592	3.55134268123	0.785236337049	-0.234657860812	-0.107318660349	-0.989403411053	1.94943649148	4.32442490259	0.904983343851	1.41600075334	5.26838904298	1.55890930847	2.84462873887	-1.62629419235	2.43112577291	7.19825609857	-1.02937559288	0.0502812867668	0.474216087759	-0.815219729052	0.227986074277	0.431954246284	0.399545386419	-4.64784949794	-6.8040772954	-1.0656931288	-0.802244507152	0.937375171196	-2.47273694562	-0.0701709213425	-2.98220343711	-6.16630266224	-0.877334361118	1.5827494601	3.10743177188	-2.0609432251	-3.03153887583	2.28623206428	-1.87915957789	4.29484533414	1.70666978616	0.000234047018457	1.08332373506	-2.388697487	6.13347503951	-3.29373823932	-0.176415510834	1.606111658	-2.75056453856	-3.28493212953	0.316042650188	-3.82234048907	-3.82618389927	-0.961453066753	0.839959217017	1.46410197661	-0.170104290786	3.49972013066	-0.844058030472	-0.777223975371	-2.06277393169	-0.0650145007842	-1.14809302289	-1.7001332865	-2.23291238977	2.60249769595	-3.18200816932	1.96528034072	0.773750155851	-1.78099715459	1.2259386396	-0.630886815416	2.4324923178	1.50558386977	0.101763732597	-1.8176494754	2.72298471046	-3.05648712018	-0.610475539383	0.541498368811	0.696512090916	-1.47950442609	-2.94021913293	0.375715229548	1.13196648998	-2.77713909199	2.82665163281	3.10153103818	0.639334686539	-0.15728160199	-0.0929214864025	-1.69062580406	-1.60038469652	-0.780442598037	0.127193988284	-4.67911940327	0.47621546195	-1.73251924365	4.94962909029	-1.35516305798	-3.57554307332	4.54624696814	1.02991563204	0.933554804468	3.02915105367	-1.68606276886	3.82097340555	0.118520856012	-2.21376397181	0.0362513367218	-0.0173844977196	1.27286849235	1.68928064776	-0.271083879642	-1.84287423731	-1.91379350666	-0.310278728605	-1.65413920252	1.85942479679	0.337212016897	-1.65374017812	3.24995772257	2.84812973	-6.4272970736	-4.3105498167	-4.6940725131	-2.57428476358	-1.89069300862	-1.37671816286	0.864923317048	0.721634417583	-1.04479381143	0.626350702191	-3.11347795767	0.623344009789	1.34018366982	1.64003366571	-1.32066275438	-3.67471495942	-1.02058711589	0.559015774278	0.00882756038053	0.74792991641	-0.286273483038	1.46427781131	-0.248610681588	0.557711756984	1.79261409005	-1.62688056894	-0.245990734528	3.02920636564	-1.44014107228	-0.213223614011	6.62417437648	0.65836525442	5.4303939102	1.22831069804	-4.06824248046	0.218328535397	-4.01995516614	-0.86323449165	-7.56848128157	-2.23977921261	-0.113361552177	2.36100368073	-1.42092151383	0.645972590553	1.52166403069	1.98217692888	-0.609217752609	-1.38131062846	-1.1812842618	0.0219285716842	2.92350131488	-2.76668865951	-3.76326478383	-0.618254941529	-1.06574759623	1.25123423184	-1.53937620772	-4.21387276972	1.69541898164	1.78783538658	-0.135668774173	6.18453199938	4.55872500041	-5.71510505044	-1.82117909327	-1.44706495757	-8.6499252474	2.75297828547	0.485433432302	0.245283953352	0.894183549432	-2.25820822226	-2.80756567744	2.20908918992	0.961986494833	2.48216604006	-0.595268185987	-1.32752558692	0.716041325434	-2.46033649303	1.88357824172	-0.196389376817	0.281255117715	0.247187657597	5.06877254658	-0.523915834584	4.40367066653	4.79382089426	1.945722663	-1.5249830971	1.91289788543	0.821424046118	0.584719670384	-1.65426183156	2.27372342333	-3.02467151723	-0.705534139637	-2.21222114767	-1.315683307	-0.395749606589	-0.769133154235	-4.09709635791	0.746290623597	0.814301706278	1.0451099993	-3.13770871254	-6.60835744114	-4.9623418993	0.821841035454	-1.14340891074	-1.00448050887	1.24363110665	-2.23255425165	-2.69258676183	-0.187561344942	0.127570591453	1.04033290509	2.00543214521	1.91247255456	1.58532241762	5.35909685722	1.02151814143	0.967795754845	2.53148912745	-1.1873975113	0.248545272105	0.0494687182662	3.74393166384	0.822547605001	2.02413623406	1.90689896015	-3.73476103114	-5.59866757476	-4.92423925863	-1.4148300551	-0.638763628525	-0.080308537009	-5.31193050384	-3.59757770888	-1.56593595446	-2.19378631612	0.16642192397	1.52795723318	-2.99882173586	-0.700992740303	0.871199083637	0.403133988354	-0.266800785815	3.74771289694	0.377092582349	1.14910482063	0.6304399753	-3.6024541405	0.0962596390777	-3.21998506412	-2.21281150811	-1.69920511293	4.56278370247	-0.0219322506011	1.74511763032	-1.42052909905	2.5167942813	-0.4324345848	-2.16521101133	-2.57684091442	3.14077983116	-2.15724102673	2.18094535058	-1.94609402501	5.00060200802	-4.59664631999	1.04844267987	-0.627121435064	-0.52717881285	-1.3045473039	-2.49940454535	1.24535314312	0.841647884649	1.94389469432	0.501030093809	2.85797872268	4.61107471436	-0.341993623936	-1.52367478064	-0.900785203073	-2.56040559534	0.541688735074	-1.11979609049	-2.04425634858	-0.140520515858	1.06858497143	-0.351278995248	-0.10083924309	3.53380587631	-0.615428926988	-1.93970418283	-3.21576518794	-0.314889530131	2.12425065881	2.27369136189	-2.72622654502	1.42832471929	-4.44283298449	0.876184120885	0.847707708176	-3.2609702057	-1.38652050504	0.873339171282	3.39141239429	-2.3652671236	-5.6804801571	0.166283064684	0.00508888945866	-0.828062701262	-5.93172956987	3.82811206144	-0.506013503672	-1.07241388755	4.07107766965	-1.84774803627	-0.476247706305	2.9245978321	0.799644842135	-0.327001905329	3.30138016522	-2.191305671	0.544996920038	-0.212300426321	5.31581491423	-0.539624167688	1.7241525574	6.61409531112	-2.67242372669	-1.61449519364	-1.82340981818	-4.18597626265	3.09940350888	2.78376466918	-1.40190526788	-0.900318111553	0.300191702702	2.87239307657	3.66784300168	0.368065116248	1.53413778575	4.15746799083	-1.1795111866	-0.845589081184	-9.37812583822	-0.249340928245	-1.62785211052	-0.28994106805	-2.32916730398	1.81053608219	0.535656801885	-2.79882310735	-0.98451691523	2.56971378923	3.28075115435	-4.81003712645	-1.4262413075	-0.0048885111483	1.34131145261	0.537233294396	1.07242742685	-0.380572389836	-0.789143095525	-1.47839633496	1.79555339624	-0.881577824719	1.7802783359	-5.00558308512	-2.07540686865	-5.95151581359	3.10110053809	1.93071551878	5.40448051533	-1.0910134702	1.90098426687	-2.81248841533	-0.415865394623	-6.51424831029	-3.05953515929	0.190922793732	1.17311420721	3.63214229122	-0.467000873057	6.52254981057	-4.07153070671	-3.50866330007	0.685671834681	1.81990442636	-1.07375140076	-0.75566279413	0.647505467597	-1.26440729037	3.11382474147	-0.0727356691062	0.35030423858	4.81411780428	1.89874713952	-1.46091829428	-1.36044444601	1.40112759093	6.06967413007	2.25238376527	0.0135869114725	-6.20972347965	3.30476470701	-0.12580888385	-2.95186872364	1.74617733861	0.455761439609	0.484017376989	-0.792765202975	3.3626958396	-0.642122302923	4.10913884423	3.36868215377	-4.20070157852	4.20904958745	0.797259918217	-2.30152002962	1.99589419654	5.15363457466	-4.55623806157	-5.10466006534	-0.326867382449	5.20098354597	0.00142033218159	0.746202447923	-0.731135110538	-0.178805096503	-4.06618315573	-0.297222712529	-0.554470650043	-1.64038477682	2.64899694085	-0.793818353155	-4.20780733528	3.26963268221	-0.0718517458957	-4.0740722533	-1.66976026326	1.96241008073	-1.64402901085	0.484424024533	3.25596101435	0.706688103806	-1.81460878091	4.47391580308	-4.39168472039	-2.87219272735	-2.0061158501	-0.445758118844	-0.755218159742	-3.73797080959	-0.249042968256	0.588258230832	-1.22006771111	2.81346834486	-0.463576472318	1.55200781843	-1.23459946021	-1.49828436466	0.921933093263	-2.20559840965	1.06283411264	0.577716202586	2.59455163271	4.03835163862	-0.901142020819	1.38205483329	2.61536072346	-0.831718126982	-3.76058278784	0.203272654939	-0.549488997082	-2.35985659421	0.223221096719	-0.74032290529	4.40427536984	1.44243779568	-4.01056414157	1.36251283944	-0.514739250043	-2.4535416277	3.56833004365	0.558407154465	-1.89539509455	0.737566154548	4.36119899238	-0.75781121224	4.59317236813	-1.50123544873	1.05988525066	-5.2611313422	-3.82183035667	-1.25813300759	2.61236095003	-0.666913783718	2.24168165514	-0.081923797476	-3.7016395778	-1.14132726043	-4.87499905446	3.90214230391	2.16951639479	2.74278647786	7.17134473025	-0.294416101756	-1.52481250165	-0.566231124647	-2.44672739112	-5.70907150944	-1.3958406555	-1.42930098146	-0.777243359991	-1.1065152616	6.00935769113	3.52747219632	-0.568654324619	4.33784133962	-1.54348112384	-2.51580755306	1.31282956377	0.183787009645	-0.979502811957	-2.14590146999	-5.53264650448	0.998592940444	2.34064262569	0.740542451955	0.89392307159	6.38741774955	0.297750640438	-2.57225483199	1.13123818076	0.335278196175	-1.72012096157	5.17491542183	-4.83547826989	2.27484288674	-2.30566219813	-2.671122812	0.339360547916	4.67945668105	3.18061119762	-1.43621322128	-0.256077483845	4.15299462128	-0.823504909804	2.68109806184	4.77623630401	-3.01343091018	0.569172612844	-0.0687969603182	1.30107203489	-1.01245473889	2.37246191652	1.82237668246	2.48773362338	-0.309373745774	-1.84948413201	0.256113971484	-3.60723376611	-0.917557666916	-2.1304045128	-0.231867660521	-0.0168774118443	1.69785319371	3.71844376021	-0.845276752729	-2.8752264646	-5.61487030124	1.59064857676	-1.78662618398	-0.153558809821	-0.0379395802065	1.25694327969	0.988073884543	1.37842030696	-3.13301237471	-2.90191239837	2.70015887846	0.898037271468	-1.32750142191	0.732785178378	-5.23110968214	0.239539878389	0.300995857024	-1.26253978181	-1.25998683076	1.50574992033	-1.51533214817	4.18333052906	2.22483853322	4.59632957914	1.25975132676	-2.14520021033	-3.71635915526	-2.82043106048	-0.0183662136559	-1.30646694003	-4.72720450695	0.711231994131	2.34650372975	-3.68280431258	3.68761744093	2.33895737458	-3.42155274546	-3.55301764265	-0.0150982175729	1.42803938645	2.85117294744	3.01226811792	-0.376746075033	-5.37313154922	1.56993647229	-1.47718121766	-5.72681226125	2.24245311541	0.687844539008	2.60972598689	-0.574204302081	1.18973706837	-1.87753668036	-0.231307487388	2.82469277307	-1.06487647321	-1.95767156536	-0.316210822961	2.61049711936	0.0209510593935	5.34537576281	1.257126788	1.20270247567	-0.119166406076	1.95668640898	2.00601495403	-1.32304890087	0.695124533155	-0.902658243267	0.23417763654	-3.89711897366	-2.13912535681	-0.119573851268	-3.89692055444	-5.52148803957	0.880909320036	-2.76473754601	-1.30228145241	3.55910514728	0.553122938454	-3.01010230749	3.24212167874	1.27029618095	-2.3110971485	1.38287460678	4.5160931698	1.26325178057	3.2243276261	0.633212189946	2.2711424008	2.28077399175	0.07873377161	-5.91458622926	0.118456874563	0.500187448007	0.0937898573689	1.51544583885	2.98112909992	2.67855870839	-1.11600887374	1.66289508773	-4.64547602186	4.51243408802	-2.33718766375	-2.66525467146	1.39553096984	-0.075163953592	-0.395918178104	0.410981901926	-2.1058653947	-0.140006848154	-3.73587204636	2.94967972894	-1.16823362777	0.909700659742	-0.472378643244	-1.06412334038	3.35167823837	-0.0514569101443	0.803127748178	-0.0375412570556	-0.412835776173	6.58172441149	1.38883879751	-2.3058422433	2.16868119662	-1.13190503397	1.91656767411	2.4666706867	1.97713449362	-1.99645661419	1.04604520314	-2.60481250145	-4.66795634528	2.26988060615	0.601210030722	-4.28029604815	-3.57552737029	-2.82601073945	1.60000194373	-3.83383995003	2.26323558059	-1.57670018807	4.3934504726	4.42459793826	-0.692399147685	1.82090734404	2.71102258671	-7.86541170394	6.13957227691	-2.35307635004	2.14494318181	2.27261526311	-3.77189593886	-1.75262187869	4.08908944602	1.64998766404	-1.43707500867	0.761754859881	-2.11563392657	-3.53026756096	2.14507652155	3.28763329766	-5.51792122269	2.67085535535	3.41035141077	-1.06461527586	-1.43981453772	4.89983651628	-1.18382505365	-0.181685259999	1.79781145725	2.71450600834	-0.804092425544	0.879709875659	3.03488541867	1.37214694744	-6.12210763385	-1.06612720475	-8.18218209231	-0.184857658581	2.99162331446	2.35423006537	-2.4626022676	0.504230197279	-1.01363796727	2.40113763966	-0.564489486235	0.942258365625	0.0556457838518	0.166068283638	-5.26742698502	0.189897982143	2.70544493343	0.50774310203	-0.920989612563	-0.656679874843	2.06132287648	-1.25766637327	-0.064480556957	1.25952949651	1.59065322927	-1.42248576037	-0.300302366541	0.67724243159	3.36926171139	-3.76048492654	-2.23144710179	1.91003312082	3.84073827147	0.168442569045	-1.19451530609	0.955941084952	-3.06485855324	-3.58306230514	-0.310125897011	0.443754289499	-0.967615753806	1.09325771114	-0.802779985985	0.614736239023	2.01591219964	-2.51102753116	-4.06676837936	-3.75846205044	-0.642093140764	-0.990787963633	-1.23029998507	0.618888304199	-1.04072546141	-0.20554581604	1.66642561658	-0.733402991609	1.14858178589	-1.60806482194	-1.22436442288	3.16236275706	-0.89240604997	3.74877829097	-1.48134409633	0.258933112161	5.3909197741	4.23730136262	0.104603073686	-2.55956633436	-3.7788724739	7.33077469416	-4.59755211137	-0.579439549539	-0.346664133468	0.817262981906	-1.10899821484	0.136939523046	-2.23022962929	2.83360972706	3.9611908717	-0.893274996117	-0.992869362331	3.8221001262	0.772227287625	2.60621486193	2.89997286797	-2.57333177901	-0.141211012739	4.92606033688	-0.787343894344	0.11772209029	1.16020789838	6.18371031239	3.64443714111	-0.837110797986	-5.63008989925	0.958063745341	-4.45837887689	-1.23951397079	-4.20651747174	0.722483980998	0.27513924665	-3.11695273325	1.4860137448	0.954571632709	-1.35018408742	2.76883403528	0.480762491967	2.88306195406	1.58043471564	-1.9595760693	-0.575383278905	-4.09189447493	-2.54564813375	-0.0338583969036	-1.48460235516	-2.88610662392	0.583509203528	-1.64521575002	-5.08286111702	-2.58649509449	3.41180373884	3.28121094535	-5.0859923316	-0.863408103778	1.06333614228	-0.485502605557	-1.40254239409	3.20678568916	4.85074948698	1.35207134374	-0.155083274612	-2.60005134747	-0.203605213528	1.11111219497	0.361926479176	2.40110580449	0.0685432010663	5.37398227468	0.187085433776	1.61019925302	-2.40844420803	0.915214523786	-0.884387106889	-1.21751249594	0.175772510529	-3.538988849	-1.97761916491	-3.91219172235	-0.459196534885	-1.70126525568	2.76340459272	2.24467943941	5.13977803449	2.3115487803	0.190432640532	-1.19311831268	-0.853710052082	-1.81581733516	2.85658069193	1.6396667853	-0.593180548773	-5.43713358803	3.94899918656	0.974467095243	4.34731135461	-4.18943882603	0.200813398193	-0.424435114552	-3.79287511457	2.05329852415	-5.65473867727	2.17977410067	0.0583986838402	-0.851240299582	1.99660390719	-3.35660325709	1.82018684293	-0.724569225116	-3.64916672154	6.50066988145	-2.77113434324	-1.23582809785	2.43517591561	3.38211254005	-3.34007013777	-1.41256480057	-0.83696102391	0.172445193678	-1.18000111275	4.44144503257	-3.54293764767	-4.01510411891	1.19863560183	-3.65956852008	-1.33941169233	0.976478998127	-1.64951395784	1.60810066037	1.05153988337	-3.54832095374	0.140024426899	0.201839502813	1.86640701501	-1.79929873687	-0.892400172827	0.830436095729	-0.526252465134	2.23854445427	2.00083264909	-4.82906231301	0.932798440867	-3.29794100948	3.6135748967	1.40023010051	-3.80775355248	0.945109971171	4.16476315537	0.769540353075	3.51928589796	-2.29546398042	3.61213927198	0.0933114541219	0.982011406327	2.10619674048	-2.0842664895	0.873026750346	-2.00131132245	1.09890114132	-5.76636827734	-3.84057916608	0.363752618512	-1.95551104186	-0.455001524601	2.65917102049	0.161007312459	-3.39387850357	-2.65775446383	-1.91321106583	1.90315664263	-1.64323446481	5.03206089147	-0.716711099051	3.71271447824	-4.02980119019	-0.73399413797	1.84843128193	-2.15725820581	0.445927592118	4.37767346603	2.06909690783	1.03973827061	-0.0697913983433	2.5253862314	1.21274866554	1.31617841658	0.948663151444	0.701424288673	-3.08541732274	-1.68277504735	-0.290806641949	-2.76538809179	4.30407104518	-0.131669554178	-3.20932622365	-2.11830820035	-0.600674285263	7.18426383526	3.67391058818	-1.82331979574	1.72890736421	-0.240326304477	-1.87460323998	-1.01018933126	1.88587174466	4.19501071654	-2.50781990133	0.912119619446	0.510227664512	-0.25763043373	1.42944647249	3.92617676505	1.0255588271	-3.53744535872	1.07276543037	1.12915308057	1.06056557506	0.606016737102	0.0159083364776	1.15112020298	1.01259243726	4.20849699292	1.94242655366	3.32259010411	1.78818382128	0.857730329899	-0.868139598566	-1.85708713157	3.3480596663	-7.63571394963	-2.43058061512	6.27359065191	0.592626526819	-4.08916672156	-2.2199411968	-0.783771460982	-0.993701402017	-0.67683739239	-0.654471568564	1.97819361364	-0.301375298742	-0.692472072682	-3.07359250925	2.6674064589	-0.932901921272	1.61886890193	-1.94155223436	-4.9057071183	-0.516234487548	-0.204502065457	2.19809835726	-0.394511590135	2.77270946935	-4.73425172368	-1.69407192091	-3.71298236212	3.32098296648	0.895837308478	1.09311530919	0.991755152608	-7.5655516921	-0.940095045446	-3.73236516887	-1.4972421673	2.8068761512	4.69180325558	-1.46887681256	-2.36815791526	-0.743695228166	2.85077109546	-3.64547022952	2.96061620204	1.10556653405	3.26176493718	3.56002193809	2.48914606075	1.08403263841	2.61967252715	-6.16253456345	0.138947064423	-1.02041351135	1.44684761415	8.2834153439	3.28755352445	-1.71402297898	5.83767549283	2.120196749	-4.09909404717	4.6474394427	1.88636120656	5.57627184315	-3.11564397025	-0.834709921685	-3.36331072636	1.33165458473	5.40625240356	-4.86317994094	2.44631865082	-2.26095128971	-1.52437437545	1.94149394906	1.21913669175	-3.47343574641	8.0100712542	-1.89943407141	-0.080482555187	3.1492947683	-7.0722211847	-0.33631200704	-0.98963502155	1.86353163766	-2.17372378791	-0.794939637574	3.19254516605	-0.828486447601	-3.30128350143	-0.569907530733	4.36151045074	0.310575318244	-0.549694317234	-2.94797288415	-0.771234665514	-0.128073479117	-4.95453206171	4.67245896993	-1.91386358469	3.26850122248	-2.29005675161	2.17801300313	-0.654471753248	-1.91013693121	-0.438661184928	1.93988697941	-3.04884407839	-2.17416204425	-2.03991555797	-0.915404589937	-1.54801336567	-0.941520251133	-2.41669741107	-1.98661511075	-1.4001062308	-0.514751272445	6.04994027293	0.453233390632	-0.00499253809111	3.045497902	1.06410023645	-0.81944161152	-0.634905223884	-3.52059140624	0.319611075739	-5.87530004513	-0.827766636188	-1.17371603113	0.026112110638	0.0296855830106	1.5245410683	-0.433923185266	-2.77303937411	4.78141647045	-0.655286285934	1.26155421152	-3.71763807774	-1.34693824334	1.62039410606	-3.03360920943	-4.02132877755	4.59619539405	-0.212560082609	-0.152340241734	4.95696427516	2.4074789278	-2.22078806962	0.71866062921	-1.96518171398	-0.831939053831	-0.773071372783	-1.53248803916	-2.03052249738	1.72682046983	-0.670979905557	2.04656037852	6.16233355882	-1.30099484199	-3.10710570786	-6.18974191252	1.83205089828	-2.56763891362	-1.04835532511	-0.64183724588	1.14127689681	2.68333086549	-0.398493814656	-0.479603039205	3.93779330783	2.94043449579	-1.71772865617	0.0064467975439	0.171689428495	-4.02245200793	-1.85028606941	0.204966830922	1.15395447397	2.96216543839	-1.45414154639	-1.1631693808	-0.196522182984	-3.69652231007	0.461451562522	1.99364905895	-2.54011233793	0.760011762728	6.62737653113	4.45960940343	0.725077471841	-1.24592318159	-0.418347712097	-0.45098839739	-1.50202320428	-6.10689344592	-3.12451013237	0.988419121261	0.0534430469365	2.62425945478	-0.0261260099868	1.55491790748	-0.947454967539	-0.567410259964	-0.445508473747	-0.920818229654	-0.320314353832	-2.2224564229	-1.72090529432	-0.279457713607	1.75185001423	0.905216044439	-1.20617481204	1.2779392558	2.74820533005	-0.348939917147	-0.0696498015464	2.20311249569	0.13056994434	-0.0367753351384	-2.84166681791	1.5697647098	2.52277078051	1.39963352958	-3.19016038318	-4.5418643029	-3.64092038993	-1.44130574205	5.96960892616	1.12333314265	1.29637924941	2.64506003164	-0.247945417623	-0.562716262961	0.494061876186	3.94312505558	-0.609171945864	-4.1844709181	-5.52864116811	-1.88506223158	-1.48063674004	1.07732615708	2.25286321448	1.32562462426	0.908327037339	0.965459647878	1.86284530646	1.72293651176	-0.518482707038	-0.923171463431	-1.26873744973	4.6956384924	-2.14357398855	-1.45288468808	-2.20063586493	-4.45972684339	-5.92255457406	-2.15351355943	-1.36331003528	0.000399573067074	3.78001516919	0.196082892136	0.32517273722	2.53621413062	0.479779175486	0.534801585661	-2.06266215942	2.2376875792	-2.19132188182	4.46062689204	-2.99398227241	1.08834702165	3.12747156227	3.74739918098	-3.1952944818	-1.04880487357	-0.978928780875	-1.15162696515	3.1955298716	-1.89498978764	-0.0258008465238	1.44381875418	0.100486995726	2.99748476718	0.901005004031	-2.70146128219	0.978565060989	-2.8852024724	-1.50970031604	-0.803700789442	2.48722620118	-1.97612346803	-2.00275800183	0.344866448082	4.41006980385	-0.0813702129207	5.18245361381	-0.919942508024	-1.90358937926	2.66229135649	-0.04813757877	2.57835570037	3.3852274618	-2.91702336384	1.79843391747	0.530610317968	0.109767539487	0.577469294937	5.26673701187	-1.75311107695	4.51837372221	-1.76991691543	-1.14721953855	1.72488947835	-1.76161529047	-5.49668535891	-2.48516992175	1.03295120532	3.45404010062	-0.806702103167	-3.36807860106	-2.33438798202	3.36143955023	4.55979074966	1.9263059807	0.529221411406	-0.170504910307	5.81783192671	-0.892132601178	1.96721204284	2.38579698315	0.599408467866	0.257616579367	-3.40679363829	-1.07204365254	3.45804994409	-1.04945058264	4.42629071877	0.301412716286	-0.665113051602	1.28322848603	-2.35533790946	1.11476825126	1.94134888787	1.15774711316	-4.13019157444	-0.16255594392	-0.971797542505	3.28892411873	0.455106451151	-1.3006058169	-0.609641820118	-0.936903974728	-1.50609413054	2.70666748257	0.757239622166	6.366716356	1.18539758676	-1.79268441357	3.47457459136	1.44916397595	1.59580842993	-3.70589872643	3.77212337151	1.88198994646	-2.54227674811	-0.513955077118	4.91490742161	-0.125178484411	2.51754559951	-1.00473581737	-0.828597526719	1.65605917203	-1.32682608537	1.60556739024	-0.121963045215	-5.40348501835	-6.59651919527	2.92704705196	5.50504112	-2.89865353305	1.42226699849	-2.44442496136	-2.54854348819	-1.98343130465	0.070741355913	-0.37441223413	-1.64988607308	-0.772491181964	-3.58771365613	-3.67555598854	4.93535393918	-0.193771993026	0.848050327349	-0.32654988391	-0.336563321244	0.0299187057479	7.31125869098	4.46354194632	-3.24286749105	3.14966622267	0.871684009928	0.41695314903	1.87531368175	-5.55997015372	-0.761413682254	2.41670473873	4.36244031628	-1.06493657502	1.07246178195	0.557466865448	-1.62783776584	1.76730582557	6.09628372493	-0.751531245901	6.61871475297	4.39800609708	-0.584391691236	-0.242339915047	-4.64070316675	-4.03416174662	-2.88171525508	-2.04609872906	2.60699193188	-2.71508395137	1.01496253858	-0.498274647728	1.67850507125	-0.92021193144	-0.325697743262	2.77049483447	-3.89483954778	2.42652912408	-1.34376238974	3.22399825978	0.176413744961	0.395741044496	-2.09596332239	0.712021537242	2.13237660648	-5.21275851935	1.76776008047	4.59205587328	-0.020122960905	1.22980641174	3.05477737293	2.25150595208	-4.13117700628	-1.85493425398	-1.79562640484	4.48681650185	0.0318158116549	7.77278603295	2.27965278131	-2.91876135583	-1.69367632295	-4.15560508815	1.20154381762	7.01496787776	-2.48437569429	0.250197913922	2.74108313787	2.91046216064	-2.09297391349	4.69876256736	-0.000992315489461	2.5981674094	2.12596921556	3.05260817781	0.378571745413	3.08999478237	-5.84783923942	4.09615054879	-1.86550670124	-2.85719023807	-1.10702993679	-0.188271385793	-0.33795742278	-0.589247602643	-4.03933605152	1.13175955861	-5.65762349026	2.02621597781	0.0922779586908	4.21078481831	-3.23127116393	0.335790623294	1.06512063279	-2.46482063888	4.68273887658	-1.10968574541	4.16255264692	-2.12282737747	-2.91094653354	0.912045341256	-3.72943109867	0.76817222487	-0.21679680013	6.44395981644	-2.74628849223	2.52690625252	2.08980088891	-1.93851886366	-0.603745584872	-3.67000746203	1.27207273543	0.362473086552	-0.00257449230563	0.63807913296	-1.0122025956	0.668712862741	2.15381928799	2.65751999101	1.64312303667	-4.65449185066	-2.01968772431	0.15175590023	-1.30614474675	-0.753591003821	-1.31061619806	0.0110542829122	0.733130398745	-1.9789854627	0.0816735226566	-1.62758473586	1.7788563183	-3.8480644684	-1.31582449529	-1.85095108379	-3.31962673699	0.18391861075	0.304446317091	-2.03009936092	1.15999611634	3.60926533893	-4.84021608536	-2.73602989967	1.67331270103	-0.26276862935	1.87676635978	2.32837934927	2.43743253769	3.29697240548	1.94605944972	2.06055088711	5.29072169931	1.18834806334	0.671295128959	0.517387043616	1.54843239604	2.3661687417	-4.33264529836	-1.55565172976	-3.44404907719	-0.941872202765	-2.57644873046	-2.30727509253	-0.62840876155	-1.41980096461	1.19267877454	1.89638026441	6.50036725314	4.59880521435	-2.90098527998	0.89383706596	-0.815213526788	-1.22467914345	5.05007840446	-2.17999655044	0.672382103004	-6.83500504887	-2.29017328619	0.282394106625	5.35061070327	1.09265524582	-0.0793704085406	-2.26322909682	-4.70002590312	2.601930079	0.860000475714	1.46002802425	-0.474293955064	1.8954477732	3.08645422977	-0.420433013978	-3.55427548935	-6.98645458802	-0.233994867773	-0.929557996615	-0.915559775655	-1.57965292549	0.457080698491	-0.524114831678	-1.35796700125	-4.41964706236	4.30174503263	-0.81050286155	2.19722173954	4.21196603037	1.39517859301	1.65277062673	1.09304512126	0.622621714635	-0.757459743925	-0.375250445989	1.78412897014	2.1834991768	-4.77366610598	-3.75192171603	2.86780744657	-4.40400690483	-3.91514891381	-5.11747418582	-1.69518267968	-0.765338669305	1.56474240294	-0.979365411287	-0.433333725536	-2.14802446981	-0.796979779866	-3.24795004616	0.961822439879	-0.0632970859209	-0.660629671162	0.328843066355	-2.30285425976	-6.45835418528	-3.30611748596	-1.56210608593	-0.308418920886	-0.215159886828	1.06100947684	2.65950201324	0.40084032227	-0.595120241968	6.64597293222	0.926394060811	-3.07613958124	0.371987790269	0.726054413841	-4.31427362493	-1.47755902541	-4.46102235326	-1.34707428045	-2.34948225506	1.33338691755	0.285513048791	3.30754754954	0.727225773473	1.30912818657	2.57348672539	3.24754700392	1.80134571081	2.6212427372	-1.55875941278	-2.83773544633	-2.2323306101	1.39517866686	-0.948670913949	-3.50446515428	-2.36886395085	-2.05880359227	-1.27203642255	-1.51142340351	-1.49974808541	-4.46735675572	-0.789108786671	3.22128674853	-5.79843670794	-3.13080668033	-0.56026168053	0.483519495591	-1.45602257057	-1.95290370485	-1.62639463606	-1.24370054777	-4.15708352817	3.51249693311	-0.486627308091	-1.14478766382	-2.0062394535	1.58580479627	2.82618039761	1.55857232305	2.76713120458	-0.811629503287	-1.42021530831	0.654649592716	-7.35374783269	-1.57027488013	-4.4191932	1.78098290326	3.17220342354	-2.22778241919	2.13438726536	0.528040750699	0.165223871343	-2.1331267578	-2.04418458152	-2.24526122946	-0.493312560306	2.19863813169	3.45378449153	-0.47529927777	0.189089145668	3.49354787083	0.513225198477	-2.49689956302	-5.71726933285	-1.10789924299	-1.76631149554	0.559722096843	0.936249252728	1.98493070398	0.204370152282	2.26304196308	-2.97801482094	-0.676915524386	0.277392839065	-0.111126609439	-1.11559866434	1.86978660567	-4.35754103575	-4.27992858	-0.806810778881	-0.858250161891	0.0307090317786	1.63976416435	-7.91148953681	0.0506537048138	-1.37699330402	0.384702105077	-1.14923072009	-0.710758212516	1.86939674224	1.28105105092	-0.240065402116	0.395014585698	0.0191012485163	1.01797261058	-0.817982245391	-0.975243056414	5.62414246966	0.796596910497	-5.07305351393	1.59676326186	1.13100689636	0.392926890189	0.410768896294	-0.49892592625	-1.04446605504	3.42691952962	-2.14509228623	1.37603341227	2.40525097506	-0.497615858836	-2.81278327431	-3.69640958675	1.2878752032	-2.47796402477	3.20147800943	-4.10321878	-0.81346788343	3.88949696493	3.74038341283	-1.0600308804	-0.895472017687	-1.1358753167	-2.35454354464	0.96642599481	3.5024536667	-2.50826988246	-1.80331978677	-0.173473571233	4.43622427977	1.01659407566	2.49532120802	-1.61596971894	0.340500690499	4.94121857008	-0.0690576855232	0.20388945734	0.380259228333	-3.48132469897	6.26527309077	-0.643672956849	-1.32229027886	3.41023920671	0.914398845099	-0.874276538075	1.00677020582	-1.43983528366	-2.57500803123	0.566665710245	-1.00761194239	-1.31925824067	2.05286998707	0.101343276485	-4.81981311335	0.1432752179	-0.402796847759	-0.277418093509	-2.7004308216	0.502607013467	-2.41362367416	0.846257148318	-1.47350494695	-2.04407402106	2.57256466632	3.3600510641	0.160559741205	0.553035707648	4.25715904058	2.18739651399	0.557308186191	-0.391188080507	2.0262538303	-0.47696250342	1.52313530033	-1.64763489738	4.00215945789	-1.26274056807	-2.78095678265	2.39195150443	-3.43778120719	3.45558595183	-1.13649257217	-0.995011885472	1.29332643086	-1.26714510717	3.44334102772	2.76158807904	-2.58361561274	2.91194316922	-5.64271589217	0.747600654824	1.86572688372	-4.1793920196	-2.9064810185	-4.61847994826	-0.64857038318	1.24669465974	0.389667643215	0.199787642419	3.05383035257	0.803870800295	2.29020434413	0.639271011205	2.0073266791	-0.608144038944	1.11257994982	-2.1261624375	-3.04742163348	-2.45806413501	2.36120013479	3.18340889544	-1.64491603865	-5.27035736499	-3.9117513231	-2.2381185828	-0.522752723249	0.387050760772	-2.05994965394	6.26709420495	1.61018934977	-3.22631454857	-1.25863557644	1.00445693933	-5.15604863682	-1.75001504775	0.183367230828	-0.306560194913	1.69824904421	0.289366549891	2.36656090882	-0.650214625061	3.3811885182	-3.85093588098	-2.34373872659	1.27591726257	1.22760270447	-3.81748171945	1.90098956777	-0.150743884579	4.23948912536	0.933821003617	0.643926986104	-1.9242628902	-3.41731733652	4.54011062363	-1.72375473406	-1.70219148809	-3.17544699642	1.58606743254	2.13705743272	0.252757549991	-0.53672904408	0.0777603846237	-4.34836339368	-3.68545305327	1.431437137	-2.8563225323	-0.191323670143	2.71538452441	0.0724829847674	1.13175182506	0.0304937714594	2.0116294675	-1.33719045509	1.8411633592	-2.22031909835	-1.30648646697	2.09624319073	5.61460820708	-0.553840762828	-0.902118282768	0.359634099959	2.32067001635	-2.09067686154	5.51865070713	-4.32379672024	-2.32977489868	-1.50610618606	0.966993314938	-1.68412470951	-0.961397876739	-0.481845960019	-3.47623374843	0.629804709289	4.86834833776	3.45713022828	0.60771198932	-3.37092966538	0.141580388332	0.288110379915	-2.32125108525	0.384778334826	0.880649378844	-2.53606097678	0.949501410834	4.38489429837	1.32779137142	1.69004050082	0.186465421564	0.122989670303	4.48093072944	-3.35397370857	-5.53339779026	-2.07848036352	-2.42732480069	-0.537332199795	-3.06155755712	4.67496615993	-3.81908462949	0.460251628231	-0.877045111682	2.00178827942	-0.406643089319	2.79739939948	4.05295817733	1.74283244364	7.61049875689	-1.05114172107	0.771597715515	2.93669934021	-2.25226572914	5.23575478181	3.47183327107	3.87746548879	-1.12113499138	1.44099460711	0.480765013931	-3.38270597416	-4.22659203806	0.341344213605	0.28638005509	3.40394710908	-1.58547204113	-1.88667009868	-1.40850295402	-0.245023870477	1.95361022587	0.544846219012	2.84709275715	3.26407873745	-1.87193547308	-2.26267181112	0.689159878389	-2.37175401926	-0.710710462403	-2.04421539508	-0.845259056161	-2.59734956713	4.21673794515	0.798422122329	2.68266207667	-1.65099857075	0.841823473853	1.66186671752	-1.60699336225	0.459612665523	-2.93420228799	3.84011050702	4.82718731365	-1.34436862386	-1.99003300611	-2.04733279505	-2.88029713921	-1.51803025277	-1.48802308779	4.03833399589	-7.57617670682	0.446025544396	-2.85477904995	-1.49631498495	1.50906969754	-0.589132788945	4.17443657626	1.10700280757	2.10303606233	2.25593096431	-0.199897776556	1.56678956733	2.70434209494	-1.79815040507	2.01971530526	-1.17585420206	1.46507489907	0.537195153291	-5.41679094884	2.21691039785	-0.423573513001	-0.651045632843	-0.931616484084	0.00584483336718	0.075979316283	1.15544511346	1.76934316692	1.84265939977	0.0896558721469	0.60389704077	-1.65597479821	0.175314756504	-5.6444642818	4.31015711017	2.79273805545	-4.16547727888	8.40016505488	-1.04583569204	-0.17010933285	-9.26731324577	-1.59632029931	4.00544289137	0.932758460513	1.72764786481	1.91947576481	3.66714697863	-6.54729961057	2.26523420037	-2.62809778846	-0.223531815922	0.136326044154	3.60889023974	-2.92455759535	0.0998613170049	-0.0426211595296	2.04220179162	-5.4841340003	-1.41454010515	1.64851720847	2.64602197227	-2.61907660096	0.961654868357	-1.62426429596	1.80624461805	2.48553232783	-1.60807861577	0.898766255447	3.57153136328	-2.764225287	-0.162836265014	-1.28280248504	-2.71151012996	0.684164451404	-5.36557299402	-3.28293256253	0.296145142218	-1.66095379304	-3.7411771487	-0.179595389155	-0.87679721315	-2.88720664458	1.27220137988	1.54181766408	-0.270318407091	-0.38742264604	0.668746912561	0.00129722667707	-5.38170684691	4.00405825905	1.1249666347	1.98302521486	1.09154918106	0.550229274166	3.24051500758	-0.466965293578	-2.69021435925	-1.42282157718	1.03270128305	0.00465124652409	-0.933485347275	3.92548257705	-0.472537895092	-1.31929596113	6.69938124638	1.27663442924	1.92039862807	1.68662066214	1.70764104954	0.381368274662	-0.534912297195	-0.577730248817	0.597994513657	-3.01186414022	-0.294660053816	2.56905112112	-3.77869569266	1.11249294795	4.71818926334	0.0171909880379	0.982615094011	2.08585682437	6.35471947591	-1.75034936679	1.72970377677	1.93494725624	0.307682783466	-2.57609075788	-0.908220235972	1.22887393981	-1.75203753878	0.708862754223	1.93749578009	1.44582531587	3.46487849293	3.72074750578	2.65229195576	5.28572159012	0.159398720437	-2.83570631642	1.12995073339	0.342931841068	1.84513945122	1.05798170497	1.98668608329	-1.67049227351	-0.709517930341	-1.81762085108	1.44985816952	0.705952410373	-5.0417428866	0.413481353069	-1.64392027033	3.38405379621	3.0062555611	1.86259303965	-5.56162178726	1.65792999924	0.0949005085632	-1.93678057213	-1.86925384666	0.859146822782	-5.51145821459	-1.59889580947	1.94384508844	-2.05320796268	0.223628264502	-1.27100572776	-2.06114630184	1.51590941387	-1.24445344115	4.4971953905	-0.907835124583	-0.974561546465	4.71329430409	1.43988581036	2.22037111196	-0.0287273169806	-4.7272891969	-3.62781975881	1.16083259417	-4.04526970099	1.99331746191	-0.602805724521	-1.1722224185	-0.787255917211	1.48681951988	-1.39800045754	-1.00221365322	-0.351228846337	1.56220107504	0.828516178951	-1.63265808495	-0.693391665974	3.35849881062	-1.96375455298	-3.15665318278	0.438423200155	0.650369602538	1.04232809138	2.02889404451	-0.477139010824	1.07608747847	0.165711889185	-0.0413741989863	-1.66393080978	-1.23146916625	-2.49835102533	-2.05724300671	-8.42986616803	-1.67259495787	-1.83008254696	-2.119047303	2.3006755501	1.23133077893	3.8064189843	1.02781481067	0.207736005392	-1.20531447388	1.86569231628	2.07121588361	-0.992582956883	-1.10429439462	-1.19733713866	1.38134220105	-0.559310575188	1.85655525205	-2.43425039247	-0.451426972728	2.56349897165	0.374734737417	0.627125514793	-4.40629244548	-0.278034609976	-0.907149645966	3.17754964234	0.168263856552	2.00017109714	-1.95033267227	-0.0864210268816	-3.02495817703	-1.1669536602	0.00418597725135	-0.916336900365	-1.15219264538	-1.97523263822	1.71277352473	-0.276585745929	0.347547328297	0.912168801413	0.153939705356	2.06591254668	-0.97204994183	3.02996716314	-0.609595625268	7.18595820952	0.372670248879	0.530474213741	-5.01121553922	2.49278617131	3.91414213396	1.78756865557	2.4090291115	2.68022193359	0.203202698214	0.556307837043	0.647233227042	1.28225311559	-1.81049961039	2.18944269916	-2.31323579502	-0.647872919199	-5.43374515276	0.768584794905	0.292731355876	0.508554342027	1.54036871727	2.80863635292	-1.01278558228	3.11983880358	1.16444399746	-1.94176859978	-1.15929940768	2.41417920264	0.741886665908	2.28015106559	-0.551711634135	0.292162014144	-3.28049262563	6.9123484236	-2.73778722317	2.6831676653	-2.94009250451	0.230740528502	-0.632845913269	-1.41616298726	3.1532686758	2.12134548658	0.636893826714	0.51905366632	-0.0870981641429	1.48750382403	0.327001051199	1.38911341506	0.827398516714	0.696335828924	-6.80926264095	-2.17442593276	2.430732199	-1.67535582202	2.68535337824	0.592072581716	-0.723025691355	0.821434397778	0.676892987158	2.27416478953	0.411717871614	0.906044047446	3.23378201487	0.0807425855428	-0.851262071295	-1.73779480096	-1.03491511379	0.435118223647	2.70080446446	-2.23478656571	0.68510776267	-2.29268825219	-0.4512725939	2.22560197988	-2.06769221724	-2.96368985735	3.20663108382	-1.42506543802	3.19055723526	-2.12376866521	-1.93861760406	-1.45206523637	1.66793692379	-0.978477449357	-3.99596543457	2.46253768739	-2.58791240636	-2.29850410408	1.90969944818	4.79042288517	-3.08475688671	-4.86613863588	1.77647032619	-2.35562290886	2.09682150849	-0.384127879326	-1.0746674537	0.0837634509651	0.949580544444	2.82118427383	-1.00355852053	3.35728827468	4.15270161019	-3.11846455892	-4.65338669571	1.34832005328	1.27075818211	5.06719259032	1.47456416367	2.27462002013	1.86477210749	1.10496237218	2.44406270529	1.04081023743	1.44187368688	0.119239659253	-0.692166057509	2.28739251695	-1.15261503309	5.1070889844	4.62472699585	-1.87489515082	-0.815903450168	0.71385465447	-0.819716845503	-0.6396604413	-0.709545386567	-1.8535590968	-1.31672837868	0.58010901703	0.146980931793	-2.15059860773	2.22480406681	7.29050897904	-0.418044516845	1.83023962361	0.187389586481	3.22477880185	-1.70056306902	-2.6362148665	-1.51258486041	-2.10128316314	-3.07728096238	-0.820377363268	1.69989004177	-0.161391780971	-3.00730891243	3.13459479155	0.913443663724	0.383010641396	2.18281837671	0.979353335637	2.90446797587	2.45744162721	4.4452908793	-0.221573463228	-0.664209797113	4.40428592224	-0.262006617849	-3.32938282938	0.00522254453986	-2.02637695755	-1.50341700144	2.88289942519	-3.22023161631	-1.29068737768	2.89567494963	-1.59119800904	2.63128574234	-0.761314761801	-0.622325767434	0.513024118227	0.936124105189	-5.92247299307	-7.47966235434	1.11884726731	0.729087607362	-2.39749336377	-2.19844579458	1.31927186861	0.063041871004	2.68871260278	4.02457382575	1.13654139725	2.84858806142	0.522736662046	-2.54442264001	3.79323116077	0.125011065356	4.91397064568	-1.31306071923	-1.61463687826	4.51264809579	0.753962521185	2.254877743	-1.87165261152	0.974548450087	-2.51827903893	-2.29712313726	0.291645189449	-0.525416360494	0.289456710286	0.24906409595	-1.08561487404	0.382223000579	3.56561466704	3.4472378194	-2.425963226	0.974135360297	0.328720004223	-2.07428306644	-0.0188062811765	-2.15566838183	-1.85130027374	1.6622367686	-6.85591129645	0.598542367883	-0.588364357373	1.42234579884	-1.29779777127	-3.65206044838	-3.08660896742	-3.51161506482	3.26704884656	6.48295866797	2.86211587252	0.111932697553	-2.40985620992	-0.976613101201	0.042489553091	9.90780507087	2.01499506925	1.92117878851	4.37443343764	0.840183927022	-2.68775689022	1.79888951854	2.16599420747	-0.826301546829	4.52857547755	4.50671528432	-0.0252727622449	-4.51743702613	-1.74353425111	-1.20238257382	2.38128038792	-1.08478327798	2.40826892857	-0.446980539248	-3.31211335131	-2.92391092256	-1.41192931252	0.468817877315	3.99450697285	-0.226441571723	5.96665984506	-1.5722140629	-0.944802764536	1.22792128153	-0.776080345403	3.19162836944	-2.66006914899	-3.5297890894	-3.45199867308	0.0491932791782	0.426328327114	1.61474167084	-3.28046160209	2.86470232505	3.17164099782	-1.22787876965	-0.402232016913	-3.27723034514	0.496772011183	-2.22532854248	1.75584471262	5.17538563339	2.70664376346	0.62240197009	-0.897777656605	2.55235105641	-3.6691922269	4.22453211087	2.70057812475	0.757573669852	1.93434237953	-0.70630392285	-0.829201633235	0.218306842227	0.582763652506	-5.72242132328	3.88580215139	-3.63773618971	-2.37631069406	3.28047072354	3.82550669471	-0.0737985616547	3.18351961905	1.66269698574	4.01187915855	-1.82362891373	4.58670139479	0.618102724169	-2.63246948932	0.029952269213	-2.6443794635	-3.21372589341	1.62631994021	-2.8890807744	0.323501258989	-0.362982716776	0.476588998226	2.4480857633	0.0482642567571	3.6408552215	2.15136044898	-4.8457898381	3.5285191411	-5.62810181554	-1.24945894294	1.8472204315	6.87265471126	1.660000825	1.00981130497	-2.05930709049	-2.32448178561	-1.78730690128	-3.51741765589	1.83131662213	-4.2993601864	-1.67392537053	-2.88643080535	-4.95079732216	1.97580214237	-1.14563988396	1.41377315884	1.4644748236	-0.443089975082	0.766987576973	-0.0668918611527	1.92098853509	-1.65187705599	-2.91436147233	-2.5490971983	0.161257468135	-4.8639689359	1.23608664077	-3.16082493077	0.560548475207	2.47670432048	0.746261908541	2.40573636413	1.84939651715	3.30746243975	-2.71119276375	-0.28382985657	-1.13063616553	-0.844113239274	1.60509890321	1.06010395753	-2.73597391406	0.145656363201	2.42248204427	-1.42285522838	4.00972574702	-0.799983497223	2.5523365564	-0.229350471385	0.139354259965	-2.69473319731	-1.76724641082	-2.40643580951	-1.72929775554	-2.90393608595	5.58083763553	1.0265857506	3.94370405441	-0.154091170229	1.00942595121	-1.52587906137	-4.48998068236	-3.41288000659	0.551895001888	-0.897343416283	2.02547854762	2.45919609593	1.55390922544	1.39114402464	-1.40187189468	2.13778652508	-0.149014765176	-2.676333022	0.094393050959	-2.07454195481	2.77424025945	3.06824568156	-1.76409481231	-2.21722946052	-1.74138783871	0.630131185068	2.5653165692	1.74708659854	3.45493079549	-2.27043785759	-1.46042128612	-0.421080015832	-0.915805132764	-1.82411416684	-0.957504630245	-2.77891709967	-1.62311481977	0.755856234994	0.383682969899	0.395838968651	0.0559593795912	3.52512278201	6.28398995558	-3.02131091302	3.91938607741	-4.27288147121	-0.872934843696	-2.68905976295	0.824275596469	4.24617376685	1.38134568685	1.87743553365	-3.23694252627	-1.7823034936	-1.98427841263	-2.49942545888	-0.344405826472	-3.81141361045	1.49897441491	-0.369213078081	-1.70035693117	0.552237339558	-4.01491406344	-1.46055181977	-0.866197620585	1.52822840044	-0.329964220314	0.578976873757	0.769332456558	-4.72595670948	-2.83616687751	2.18636041099	-4.16340503682	0.770991889251	-2.84295994477	-2.27100902764	-0.657656756903	4.10491191102	-0.799603300614	-2.32118589631	-1.80388978967	-0.586457651935	-0.180919338768	0.927887129184	-0.894624033269	-4.92637690394	0.885031716818	0.493574551384	-0.223558653835	-3.10357991394	6.45950965582	0.845800851442	-2.31478135462	0.856330819372	1.70949548735	0.0677579418812	4.75499587072	4.53686002969	-2.48757341438	1.59422312701	-0.205256449556	-1.3335932604	-0.290884732648	5.12701139592	-0.133284857479	-0.923138939682	2.18249903117	1.58706719302	2.83846614553	-0.969636316079	3.14014914034	-5.22458150699	-5.67519623861	0.26021271787	1.32338485347	-4.08882168181	-2.38907858366	-1.72875021031	0.271828649546	-2.08213325809	-1.39079086904	0.261667913908	-5.61118421551	1.30091170928	-4.49164156242	-4.11737222785	-1.77295190998	1.1524651462	2.14688625074	4.75379477884	-0.482166559707	0.884090111501	-1.40760461818	4.49104864222	4.95218433785	6.17993418983	-0.490617722067	0.691195881025	3.77590723577	0.427987070924	4.93217030058	0.936143779073	5.84221470346	-1.38078137922	-1.22065579194	-2.21230892388	2.66261165181	0.107102783221	2.69347679567	-3.31097890688	-4.04766627927	-0.287985170423	-5.21019217119	2.19870448519	-2.83849468104	-4.4313342016	-2.79507499128	-2.82565205897	1.65548138415	-0.40513263181	-4.56470697986	1.59271327049	0.1940842258	-3.91467204391	1.03896944964	-2.5714684674	-5.64423406231	-4.20904395045	-1.91885627439	0.142217769471	-0.528254678081	-3.43112176878	-2.60337123848	-0.932920438907	-0.541148858748	-0.0629232805426	3.16214112769	2.44141993198	-2.02789122368	3.69089056738	3.00891032065	5.07075216439	-0.799073593483	-4.84345982711	-4.71130129118	-0.518000788013	0.0179108866992	-4.29330672404	-1.30234661927	-2.84420295326	1.02803867532	-3.28972283335	5.98045251281	2.65463240878	-0.723218863861	3.61744635285	0.122947423666	0.518679216756	-1.8912397193	-0.572601136797	1.23538219082	3.51945921182	2.76111121052	3.08783590678	-3.1840486997	1.54874974371	1.41282447896	-3.74435820686	7.40425439683	0.726803041716	6.73767101769	2.09355911112	2.56974365501	1.02854387601	0.571520777458	-2.8273037876	1.07943181098	1.08767171239	-0.877453150911	0.806660026888	1.90268897241	1.8737065376	-1.56983934782	3.4766648829	0.588563665841	3.89080728566	3.44167297219	-0.0373175401396	5.70092222721	1.60053704753	4.87458369517	1.11668092868	-0.185138799789	-1.88143783769	0.156820701162	2.63693953003	0.147389650828	0.977069359082	-3.76901911472	1.0256874183	0.662711964209	1.84365150076	-1.67231883166	2.24774032555	1.19761707109	2.52103144637	2.27484869294	2.17901320097	2.00164209862	-3.67328739765	0.723046203992	2.14775661521	-4.56836500198	-1.53956047664	1.17480627337	-0.231478323814	2.4391938915	-1.33207199772	4.5530374521	-0.318370229481	0.811420852326	1.4342666044	-1.22749265669	0.798903776437	4.324437144	-0.926234108732	0.527641563632	3.41026460291	-0.974253249911	-4.05023304292	1.32150974127	1.284879786	2.90234305779	5.88903323607	3.98027444796	0.855249813735	4.34477136503	-1.68199258291	-4.73410338721	3.79590429698	0.996797919803	-2.97312348151	-2.16643707959	2.20703564727	-1.73110042499	2.87609405548	-4.2973685209	-4.00795019238	0.287419559723	0.588308965042	1.708486729	0.373406411935	-0.75459413647	-0.395151402145	3.2874873901	-3.70037320215	2.41471174128	1.95079508166	3.28565055551	0.129573945656	-0.719551692414	-0.0755457592051	0.686308813467	-1.91305285789	1.02997713974	-0.0840822451232	-1.60029721475	2.35909030229	-1.18664599884	0.517721382806	1.55095683442	-0.257925361469	-1.91245641042	-2.0900211737	-1.70749201855	0.706257069032	1.51190810162	0.728960520292	0.903665004057	-0.58632718219	1.42636694146	-3.31603924443	3.5098430538	0.19669896373	3.21016745092	1.65934044397	1.85689573173	-2.11450006045	3.46947601886	-1.65148179704	-3.27566033425	-1.94387782107	5.43607954019	-0.454430434693	5.31895807941	-0.953814727483	0.552742310378	-2.17487357218	-2.67362231478	3.03725941254	2.96461276273	0.169577549759	0.736731902809	-0.57124062149	0.613317326889	-0.764235186374	-1.06703027443	6.77597148515	2.39153727733	-1.79232433066	2.66526787001	1.16936801712	1.70165268382	-0.262867612154	1.14331622257	0.311569191255	-1.64150562318	-1.33769643096	-0.195709849115	-1.80296690113	-1.07677982173	-1.53853541865	1.85867362734	-1.82848794033	-0.666008272029	-0.38882619545	0.574418307571	3.06091441566	2.21822408967	-5.15941804663	-3.66165175981	0.0714023981099	-0.0157192243672	2.43261306301	-1.6804265626	0.557182838107	2.6034604405	-1.95212445823	-1.82569435812	-7.07691509595	-1.5610407522	-0.327336172265	-5.48442466432	2.76730866836	-0.178867215639	4.59541201856	0.061155271725	0.123830709245	1.2362714487	-0.120639171888	1.44629025594	1.02088496666	5.47570718239	1.53678698348	-0.30233286275	-1.6973215185